<GAP_2022_11_2_60_12_30_17_127>
<Potential label="GAP_2022_11_2_60_12_30_17_127" init_args="IP GAP label=GAP_2022_11_2_60_12_30_17_127"/>
<GAP_params label="GAP_2022_11_2_60_12_30_17_127" gap_version="1663247896">
  <GAP_data do_core="F">
    <e0 Z="1" value=".00000000000000000E+000"/>
    <e0 Z="2" value=".00000000000000000E+000"/>
    <e0 Z="3" value=".00000000000000000E+000"/>
    <e0 Z="4" value=".00000000000000000E+000"/>
    <e0 Z="5" value=".00000000000000000E+000"/>
    <e0 Z="6" value=".00000000000000000E+000"/>
    <e0 Z="7" value=".00000000000000000E+000"/>
    <e0 Z="8" value=".00000000000000000E+000"/>
    <e0 Z="9" value=".00000000000000000E+000"/>
    <e0 Z="10" value=".00000000000000000E+000"/>
    <e0 Z="11" value=".00000000000000000E+000"/>
    <e0 Z="12" value=".00000000000000000E+000"/>
    <e0 Z="13" value=".00000000000000000E+000"/>
    <e0 Z="14" value="-1481.2905682064156"/>
    <e0 Z="15" value=".00000000000000000E+000"/>
    <e0 Z="16" value=".00000000000000000E+000"/>
    <e0 Z="17" value=".00000000000000000E+000"/>
    <e0 Z="18" value=".00000000000000000E+000"/>
    <e0 Z="19" value=".00000000000000000E+000"/>
    <e0 Z="20" value=".00000000000000000E+000"/>
    <e0 Z="21" value=".00000000000000000E+000"/>
    <e0 Z="22" value=".00000000000000000E+000"/>
    <e0 Z="23" value=".00000000000000000E+000"/>
    <e0 Z="24" value=".00000000000000000E+000"/>
    <e0 Z="25" value=".00000000000000000E+000"/>
    <e0 Z="26" value=".00000000000000000E+000"/>
    <e0 Z="27" value=".00000000000000000E+000"/>
    <e0 Z="28" value=".00000000000000000E+000"/>
    <e0 Z="29" value=".00000000000000000E+000"/>
    <e0 Z="30" value=".00000000000000000E+000"/>
    <e0 Z="31" value=".00000000000000000E+000"/>
    <e0 Z="32" value=".00000000000000000E+000"/>
    <e0 Z="33" value=".00000000000000000E+000"/>
    <e0 Z="34" value=".00000000000000000E+000"/>
    <e0 Z="35" value=".00000000000000000E+000"/>
    <e0 Z="36" value=".00000000000000000E+000"/>
    <e0 Z="37" value=".00000000000000000E+000"/>
    <e0 Z="38" value=".00000000000000000E+000"/>
    <e0 Z="39" value=".00000000000000000E+000"/>
    <e0 Z="40" value=".00000000000000000E+000"/>
    <e0 Z="41" value=".00000000000000000E+000"/>
    <e0 Z="42" value=".00000000000000000E+000"/>
    <e0 Z="43" value=".00000000000000000E+000"/>
    <e0 Z="44" value=".00000000000000000E+000"/>
    <e0 Z="45" value=".00000000000000000E+000"/>
    <e0 Z="46" value=".00000000000000000E+000"/>
    <e0 Z="47" value=".00000000000000000E+000"/>
    <e0 Z="48" value=".00000000000000000E+000"/>
    <e0 Z="49" value=".00000000000000000E+000"/>
    <e0 Z="50" value=".00000000000000000E+000"/>
    <e0 Z="51" value=".00000000000000000E+000"/>
    <e0 Z="52" value=".00000000000000000E+000"/>
    <e0 Z="53" value=".00000000000000000E+000"/>
    <e0 Z="54" value=".00000000000000000E+000"/>
    <e0 Z="55" value=".00000000000000000E+000"/>
    <e0 Z="56" value=".00000000000000000E+000"/>
    <e0 Z="57" value=".00000000000000000E+000"/>
    <e0 Z="58" value=".00000000000000000E+000"/>
    <e0 Z="59" value=".00000000000000000E+000"/>
    <e0 Z="60" value=".00000000000000000E+000"/>
    <e0 Z="61" value=".00000000000000000E+000"/>
    <e0 Z="62" value=".00000000000000000E+000"/>
    <e0 Z="63" value=".00000000000000000E+000"/>
    <e0 Z="64" value=".00000000000000000E+000"/>
    <e0 Z="65" value=".00000000000000000E+000"/>
    <e0 Z="66" value=".00000000000000000E+000"/>
    <e0 Z="67" value=".00000000000000000E+000"/>
    <e0 Z="68" value=".00000000000000000E+000"/>
    <e0 Z="69" value=".00000000000000000E+000"/>
    <e0 Z="70" value=".00000000000000000E+000"/>
    <e0 Z="71" value=".00000000000000000E+000"/>
    <e0 Z="72" value=".00000000000000000E+000"/>
    <e0 Z="73" value=".00000000000000000E+000"/>
    <e0 Z="74" value=".00000000000000000E+000"/>
    <e0 Z="75" value=".00000000000000000E+000"/>
    <e0 Z="76" value=".00000000000000000E+000"/>
    <e0 Z="77" value=".00000000000000000E+000"/>
    <e0 Z="78" value=".00000000000000000E+000"/>
    <e0 Z="79" value=".00000000000000000E+000"/>
    <e0 Z="80" value=".00000000000000000E+000"/>
    <e0 Z="81" value=".00000000000000000E+000"/>
    <e0 Z="82" value=".00000000000000000E+000"/>
    <e0 Z="83" value=".00000000000000000E+000"/>
    <e0 Z="84" value=".00000000000000000E+000"/>
    <e0 Z="85" value=".00000000000000000E+000"/>
    <e0 Z="86" value=".00000000000000000E+000"/>
    <e0 Z="87" value=".00000000000000000E+000"/>
    <e0 Z="88" value=".00000000000000000E+000"/>
    <e0 Z="89" value=".00000000000000000E+000"/>
    <e0 Z="90" value=".00000000000000000E+000"/>
    <e0 Z="91" value=".00000000000000000E+000"/>
    <e0 Z="92" value=".00000000000000000E+000"/>
    <e0 Z="93" value=".00000000000000000E+000"/>
    <e0 Z="94" value=".00000000000000000E+000"/>
    <e0 Z="95" value=".00000000000000000E+000"/>
    <e0 Z="96" value=".00000000000000000E+000"/>
    <e0 Z="97" value=".00000000000000000E+000"/>
    <e0 Z="98" value=".00000000000000000E+000"/>
    <e0 Z="99" value=".00000000000000000E+000"/>
    <e0 Z="100" value=".00000000000000000E+000"/>
    <e0 Z="101" value=".00000000000000000E+000"/>
    <e0 Z="102" value=".00000000000000000E+000"/>
    <e0 Z="103" value=".00000000000000000E+000"/>
    <e0 Z="104" value=".00000000000000000E+000"/>
    <e0 Z="105" value=".00000000000000000E+000"/>
    <e0 Z="106" value=".00000000000000000E+000"/>
    <e0 Z="107" value=".00000000000000000E+000"/>
    <e0 Z="108" value=".00000000000000000E+000"/>
    <e0 Z="109" value=".00000000000000000E+000"/>
    <e0 Z="110" value=".00000000000000000E+000"/>
    <e0 Z="111" value=".00000000000000000E+000"/>
    <e0 Z="112" value=".00000000000000000E+000"/>
    <e0 Z="113" value=".00000000000000000E+000"/>
    <e0 Z="114" value=".00000000000000000E+000"/>
    <e0 Z="115" value=".00000000000000000E+000"/>
    <e0 Z="116" value=".00000000000000000E+000"/>
    <e0 Z="117" value=".00000000000000000E+000"/>
    <e0 Z="118" value=".00000000000000000E+000"/>
  </GAP_data>
  <gpSparse label="GAP_2022_11_2_60_12_30_17_127" n_coordinate="2" fitted="T">
    <gpCoordinates label="GAP_2022_11_2_60_12_30_17_1271" dimensions="1" signal_variance="10.000000000000000" signal_mean=".00000000000000000E+000" sparsified="T" n_permutations="1" covariance_type="1" n_sparseX="100" sparseX_filename="gap.xml.sparseX.GAP_2022_11_2_60_12_30_17_1271" sparseX_md5sum="fc0ae82220eb499fe58919abdd346328">
      <theta>  0.75000000000000000E+000 </theta>
      <descriptor>   distance_2b add_species=F cutoff=4.5 delta=10.0 covariance_type=ard_se theta_uniform=0.75 n_sparse=100 sparse_method=FILE sparse_file=1.input Z1=14 Z2=14</descriptor>
      <permutation i="1">1  </permutation>
      <sparseX i="1" alpha="47962875.048358567" sparseCutoff="1.0000000000000000"/>
      <sparseX i="2" alpha="64494465.997275740" sparseCutoff="1.0000000000000000"/>
      <sparseX i="3" alpha="35114226.463129014" sparseCutoff="1.0000000000000000"/>
      <sparseX i="4" alpha="-18028445.496617578" sparseCutoff="1.0000000000000000"/>
      <sparseX i="5" alpha="102318071.87970909" sparseCutoff="1.0000000000000000"/>
      <sparseX i="6" alpha="104185450.89248288" sparseCutoff="1.0000000000000000"/>
      <sparseX i="7" alpha="18594767.403214484" sparseCutoff=".11467535164638720E-002"/>
      <sparseX i="8" alpha="108476324.90365356" sparseCutoff="1.0000000000000000"/>
      <sparseX i="9" alpha="154954198.23930961" sparseCutoff=".30770408208995792E-001"/>
      <sparseX i="10" alpha="83509823.085937455" sparseCutoff="1.0000000000000000"/>
      <sparseX i="11" alpha="97557511.254666075" sparseCutoff="1.0000000000000000"/>
      <sparseX i="12" alpha="99778577.282918841" sparseCutoff="1.0000000000000000"/>
      <sparseX i="13" alpha="94968173.598801449" sparseCutoff="1.0000000000000000"/>
      <sparseX i="14" alpha="75262592.609320804" sparseCutoff="1.0000000000000000"/>
      <sparseX i="15" alpha="-10417900.909547193" sparseCutoff="1.0000000000000000"/>
      <sparseX i="16" alpha="-84423585.347227424" sparseCutoff=".99999866516553571"/>
      <sparseX i="17" alpha="-57479293.610414907" sparseCutoff="1.0000000000000000"/>
      <sparseX i="18" alpha="27172549.894347366" sparseCutoff=".17786569914967632E-002"/>
      <sparseX i="19" alpha="89462171.838493213" sparseCutoff="1.0000000000000000"/>
      <sparseX i="20" alpha="28047438.223625641" sparseCutoff="1.0000000000000000"/>
      <sparseX i="21" alpha="133209448.14255470" sparseCutoff=".62875314380017588E-001"/>
      <sparseX i="22" alpha="26417140.849952023" sparseCutoff=".12116273261712823"/>
      <sparseX i="23" alpha="-26858363.657912958" sparseCutoff="1.0000000000000000"/>
      <sparseX i="24" alpha="-102076614.47807576" sparseCutoff=".99701100475780124"/>
      <sparseX i="25" alpha="-107748369.43837969" sparseCutoff="1.0000000000000000"/>
      <sparseX i="26" alpha="-59276213.242027804" sparseCutoff="1.0000000000000000"/>
      <sparseX i="27" alpha="-58728002.015303910" sparseCutoff=".92975461695663453"/>
      <sparseX i="28" alpha="-91302019.236840755" sparseCutoff=".21223366848446978"/>
      <sparseX i="29" alpha="-65109910.804002300" sparseCutoff="1.0000000000000000"/>
      <sparseX i="30" alpha="-9683576.9956851900" sparseCutoff=".88136968080540734"/>
      <sparseX i="31" alpha="-69771580.041650593" sparseCutoff="1.0000000000000000"/>
      <sparseX i="32" alpha="-56359530.900301322" sparseCutoff=".17534141314284396"/>
      <sparseX i="33" alpha="47378848.619100288" sparseCutoff="1.0000000000000000"/>
      <sparseX i="34" alpha="55127529.193370365" sparseCutoff="1.0000000000000000"/>
      <sparseX i="35" alpha="86936008.667462587" sparseCutoff="1.0000000000000000"/>
      <sparseX i="36" alpha="6359275.7750637364" sparseCutoff="1.0000000000000000"/>
      <sparseX i="37" alpha="-106789596.56351466" sparseCutoff="1.0000000000000000"/>
      <sparseX i="38" alpha="-107364867.97092649" sparseCutoff="1.0000000000000000"/>
      <sparseX i="39" alpha="-103354631.56962237" sparseCutoff="1.0000000000000000"/>
      <sparseX i="40" alpha="70764519.594872192" sparseCutoff="1.0000000000000000"/>
      <sparseX i="41" alpha="-77197253.190180376" sparseCutoff="1.0000000000000000"/>
      <sparseX i="42" alpha="-106839373.05498670" sparseCutoff="1.0000000000000000"/>
      <sparseX i="43" alpha="50357204.633559756" sparseCutoff="1.0000000000000000"/>
      <sparseX i="44" alpha="-27945648.612026155" sparseCutoff="1.0000000000000000"/>
      <sparseX i="45" alpha="-64830788.134448819" sparseCutoff=".39509579436310915"/>
      <sparseX i="46" alpha="-113038116.58459951" sparseCutoff=".29166593644783501"/>
      <sparseX i="47" alpha="8279519.3871299615" sparseCutoff=".49074267318650455"/>
      <sparseX i="48" alpha="96220940.755484745" sparseCutoff=".68025765709520736"/>
      <sparseX i="49" alpha="75607161.862964481" sparseCutoff=".77435924187588223"/>
      <sparseX i="50" alpha="-66010887.997871242" sparseCutoff="1.0000000000000000"/>
      <sparseX i="51" alpha="25882247.648192380" sparseCutoff=".83686075602224008"/>
      <sparseX i="52" alpha="94992246.433219552" sparseCutoff="1.0000000000000000"/>
      <sparseX i="53" alpha="43398991.976972096" sparseCutoff="1.0000000000000000"/>
      <sparseX i="54" alpha="-97529750.637834951" sparseCutoff="1.0000000000000000"/>
      <sparseX i="55" alpha="-87300396.853202030" sparseCutoff="1.0000000000000000"/>
      <sparseX i="56" alpha="-9445668.8709109835" sparseCutoff="1.0000000000000000"/>
      <sparseX i="57" alpha="-65709501.976593651" sparseCutoff="1.0000000000000000"/>
      <sparseX i="58" alpha="-108939089.49744889" sparseCutoff="1.0000000000000000"/>
      <sparseX i="59" alpha="23886635.051027346" sparseCutoff="1.0000000000000000"/>
      <sparseX i="60" alpha="-20458537.114232186" sparseCutoff="1.0000000000000000"/>
      <sparseX i="61" alpha="99033179.076841533" sparseCutoff="1.0000000000000000"/>
      <sparseX i="62" alpha="53246374.671196982" sparseCutoff=".55698915627373746"/>
      <sparseX i="63" alpha="-22204979.945125297" sparseCutoff="1.0000000000000000"/>
      <sparseX i="64" alpha="-85037994.030755356" sparseCutoff="1.0000000000000000"/>
      <sparseX i="65" alpha="-102535138.36444047" sparseCutoff="1.0000000000000000"/>
      <sparseX i="66" alpha="101088427.69342855" sparseCutoff="1.0000000000000000"/>
      <sparseX i="67" alpha="111566662.88940823" sparseCutoff="1.0000000000000000"/>
      <sparseX i="68" alpha="72506021.556060165" sparseCutoff="1.0000000000000000"/>
      <sparseX i="69" alpha="89895272.510009587" sparseCutoff=".63824085264720709"/>
      <sparseX i="70" alpha="-102922024.68619761" sparseCutoff=".97595989946780026"/>
      <sparseX i="71" alpha="53802884.215746582" sparseCutoff="1.0000000000000000"/>
      <sparseX i="72" alpha="107964630.13523047" sparseCutoff="1.0000000000000000"/>
      <sparseX i="73" alpha="-42240475.784514919" sparseCutoff="1.0000000000000000"/>
      <sparseX i="74" alpha="64800772.550042540" sparseCutoff="1.0000000000000000"/>
      <sparseX i="75" alpha="112304498.75012417" sparseCutoff="1.0000000000000000"/>
      <sparseX i="76" alpha="-106358945.28072600" sparseCutoff="1.0000000000000000"/>
      <sparseX i="77" alpha="110864903.42239310" sparseCutoff="1.0000000000000000"/>
      <sparseX i="78" alpha="-106357395.16290207" sparseCutoff="1.0000000000000000"/>
      <sparseX i="79" alpha="-87736715.208859488" sparseCutoff="1.0000000000000000"/>
      <sparseX i="80" alpha="-72731111.094727099" sparseCutoff="1.0000000000000000"/>
      <sparseX i="81" alpha="-112768059.30490953" sparseCutoff="1.0000000000000000"/>
      <sparseX i="82" alpha="-133067096.13332279" sparseCutoff="1.0000000000000000"/>
      <sparseX i="83" alpha="51053671.616126671" sparseCutoff="1.0000000000000000"/>
      <sparseX i="84" alpha="10746450.840027869" sparseCutoff="1.0000000000000000"/>
      <sparseX i="85" alpha="30204046.954263296" sparseCutoff="1.0000000000000000"/>
      <sparseX i="86" alpha="-92838398.516019911" sparseCutoff="1.0000000000000000"/>
      <sparseX i="87" alpha="-23933627.971856955" sparseCutoff="1.0000000000000000"/>
      <sparseX i="88" alpha="98682630.313607201" sparseCutoff="1.0000000000000000"/>
      <sparseX i="89" alpha="-39601205.274125740" sparseCutoff="1.0000000000000000"/>
      <sparseX i="90" alpha="-11652999.310178248" sparseCutoff="1.0000000000000000"/>
      <sparseX i="91" alpha="27687006.476106159" sparseCutoff="1.0000000000000000"/>
      <sparseX i="92" alpha="-54152270.081821993" sparseCutoff="1.0000000000000000"/>
      <sparseX i="93" alpha="-108652603.33834828" sparseCutoff="1.0000000000000000"/>
      <sparseX i="94" alpha="70172739.772050783" sparseCutoff="1.0000000000000000"/>
      <sparseX i="95" alpha="-84665158.236352190" sparseCutoff="1.0000000000000000"/>
      <sparseX i="96" alpha="14401406.840391612" sparseCutoff="1.0000000000000000"/>
      <sparseX i="97" alpha="49872948.967439182" sparseCutoff="1.0000000000000000"/>
      <sparseX i="98" alpha="-42526238.562026031" sparseCutoff="1.0000000000000000"/>
      <sparseX i="99" alpha="116100228.66027540" sparseCutoff="1.0000000000000000"/>
      <sparseX i="100" alpha="99890325.962017938" sparseCutoff="1.0000000000000000"/>
    </gpCoordinates>
    <gpCoordinates label="GAP_2022_11_2_60_12_30_17_1272" dimensions="681" signal_variance=".10000000000000001E+000" signal_mean=".00000000000000000E+000" sparsified="T" n_permutations="1" covariance_type="2" zeta="2.0000000000000000" n_sparseX="1000" sparseX_filename="gap.xml.sparseX.GAP_2022_11_2_60_12_30_17_1272" sparseX_md5sum="45575ab3d362f821922adb6c10ad9184">
      <descriptor>   soap add_species=F l_max=4 n_max=8 atom_sigma=0.5 zeta=2 cutoff=3.5 cutoff_transition_width=0.5 central_weight=1.0 n_sparse=1000 delta=0.1 covariance_type=dot_product sparse_method=FILE sparse_file=2.input mark_sparse_atoms=T n_species=2 Z=14 species_Z={14 14}</descriptor>
      <permutation i="1">1  </permutation>
      <sparseX i="1" alpha="-429366761.75853956" sparseCutoff="1.0000000000000000"/>
      <sparseX i="2" alpha="-403537932.17309356" sparseCutoff="1.0000000000000000"/>
      <sparseX i="3" alpha="-292625897.11914462" sparseCutoff="1.0000000000000000"/>
      <sparseX i="4" alpha="-411775169.08421320" sparseCutoff="1.0000000000000000"/>
      <sparseX i="5" alpha="-109158544.96033876" sparseCutoff="1.0000000000000000"/>
      <sparseX i="6" alpha="-411958251.04529154" sparseCutoff="1.0000000000000000"/>
      <sparseX i="7" alpha="-403194513.53408438" sparseCutoff="1.0000000000000000"/>
      <sparseX i="8" alpha="-408963382.11674488" sparseCutoff="1.0000000000000000"/>
      <sparseX i="9" alpha="-451041883.34811449" sparseCutoff="1.0000000000000000"/>
      <sparseX i="10" alpha="-378686570.28595340" sparseCutoff="1.0000000000000000"/>
      <sparseX i="11" alpha="-423621288.60111189" sparseCutoff="1.0000000000000000"/>
      <sparseX i="12" alpha="-129463280.06720376" sparseCutoff="1.0000000000000000"/>
      <sparseX i="13" alpha="-25388424.372117650" sparseCutoff="1.0000000000000000"/>
      <sparseX i="14" alpha="-163302226.48257643" sparseCutoff="1.0000000000000000"/>
      <sparseX i="15" alpha="68203341.029836729" sparseCutoff="1.0000000000000000"/>
      <sparseX i="16" alpha="16790405.477638334" sparseCutoff="1.0000000000000000"/>
      <sparseX i="17" alpha="71279124.591598526" sparseCutoff="1.0000000000000000"/>
      <sparseX i="18" alpha="71825019.051081195" sparseCutoff="1.0000000000000000"/>
      <sparseX i="19" alpha="215981651.60098866" sparseCutoff="1.0000000000000000"/>
      <sparseX i="20" alpha="115450876.62702329" sparseCutoff="1.0000000000000000"/>
      <sparseX i="21" alpha="15186211.899258425" sparseCutoff="1.0000000000000000"/>
      <sparseX i="22" alpha="-4436054.3176118238" sparseCutoff="1.0000000000000000"/>
      <sparseX i="23" alpha="-19448258.880050063" sparseCutoff="1.0000000000000000"/>
      <sparseX i="24" alpha="98940065.493298724" sparseCutoff="1.0000000000000000"/>
      <sparseX i="25" alpha="203455178.11433899" sparseCutoff="1.0000000000000000"/>
      <sparseX i="26" alpha="-53033568.806586884" sparseCutoff="1.0000000000000000"/>
      <sparseX i="27" alpha="-53033571.437873557" sparseCutoff="1.0000000000000000"/>
      <sparseX i="28" alpha="112879816.24118647" sparseCutoff="1.0000000000000000"/>
      <sparseX i="29" alpha="270050106.49520671" sparseCutoff="1.0000000000000000"/>
      <sparseX i="30" alpha="415230022.09709781" sparseCutoff="1.0000000000000000"/>
      <sparseX i="31" alpha="415230006.24183255" sparseCutoff="1.0000000000000000"/>
      <sparseX i="32" alpha="-28439873.922450699" sparseCutoff="1.0000000000000000"/>
      <sparseX i="33" alpha="59475415.566710360" sparseCutoff="1.0000000000000000"/>
      <sparseX i="34" alpha="59475393.338684857" sparseCutoff="1.0000000000000000"/>
      <sparseX i="35" alpha="59475311.342450969" sparseCutoff="1.0000000000000000"/>
      <sparseX i="36" alpha="199428093.18534809" sparseCutoff="1.0000000000000000"/>
      <sparseX i="37" alpha="199428188.58340982" sparseCutoff="1.0000000000000000"/>
      <sparseX i="38" alpha="-3930780.4803326628" sparseCutoff="1.0000000000000000"/>
      <sparseX i="39" alpha="-3930782.6980233956" sparseCutoff="1.0000000000000000"/>
      <sparseX i="40" alpha="-46032795.813723586" sparseCutoff="1.0000000000000000"/>
      <sparseX i="41" alpha="37070098.837332383" sparseCutoff="1.0000000000000000"/>
      <sparseX i="42" alpha="522515958.12720037" sparseCutoff="1.0000000000000000"/>
      <sparseX i="43" alpha="-39821471.860986844" sparseCutoff="1.0000000000000000"/>
      <sparseX i="44" alpha="58432145.512645759" sparseCutoff="1.0000000000000000"/>
      <sparseX i="45" alpha="58432142.807661287" sparseCutoff="1.0000000000000000"/>
      <sparseX i="46" alpha="526826344.63759118" sparseCutoff="1.0000000000000000"/>
      <sparseX i="47" alpha="-2542322.2871787432" sparseCutoff="1.0000000000000000"/>
      <sparseX i="48" alpha="536905115.24266517" sparseCutoff="1.0000000000000000"/>
      <sparseX i="49" alpha="98928098.803103015" sparseCutoff="1.0000000000000000"/>
      <sparseX i="50" alpha="17203199.456156306" sparseCutoff="1.0000000000000000"/>
      <sparseX i="51" alpha="551501124.46874106" sparseCutoff="1.0000000000000000"/>
      <sparseX i="52" alpha="25756185.864894394" sparseCutoff="1.0000000000000000"/>
      <sparseX i="53" alpha="44988407.982855484" sparseCutoff="1.0000000000000000"/>
      <sparseX i="54" alpha="543333847.09565163" sparseCutoff="1.0000000000000000"/>
      <sparseX i="55" alpha="64157854.510423899" sparseCutoff="1.0000000000000000"/>
      <sparseX i="56" alpha="547134484.50677872" sparseCutoff="1.0000000000000000"/>
      <sparseX i="57" alpha="39095945.155232072" sparseCutoff="1.0000000000000000"/>
      <sparseX i="58" alpha="73114319.743780628" sparseCutoff="1.0000000000000000"/>
      <sparseX i="59" alpha="73114346.631013572" sparseCutoff="1.0000000000000000"/>
      <sparseX i="60" alpha="59854456.874606416" sparseCutoff="1.0000000000000000"/>
      <sparseX i="61" alpha="549308823.95774519" sparseCutoff="1.0000000000000000"/>
      <sparseX i="62" alpha="39130091.499076270" sparseCutoff="1.0000000000000000"/>
      <sparseX i="63" alpha="549055427.57473993" sparseCutoff="1.0000000000000000"/>
      <sparseX i="64" alpha="62677429.051221490" sparseCutoff="1.0000000000000000"/>
      <sparseX i="65" alpha="62677362.163401634" sparseCutoff="1.0000000000000000"/>
      <sparseX i="66" alpha="38453174.938027360" sparseCutoff="1.0000000000000000"/>
      <sparseX i="67" alpha="38132830.271466777" sparseCutoff="1.0000000000000000"/>
      <sparseX i="68" alpha="-163302815.98494339" sparseCutoff="1.0000000000000000"/>
      <sparseX i="69" alpha="71623965.393428251" sparseCutoff="1.0000000000000000"/>
      <sparseX i="70" alpha="92046941.740456298" sparseCutoff="1.0000000000000000"/>
      <sparseX i="71" alpha="9756105.4542121943" sparseCutoff="1.0000000000000000"/>
      <sparseX i="72" alpha="-19910528.386932690" sparseCutoff="1.0000000000000000"/>
      <sparseX i="73" alpha="-35476032.879775889" sparseCutoff="1.0000000000000000"/>
      <sparseX i="74" alpha="80659626.739266038" sparseCutoff="1.0000000000000000"/>
      <sparseX i="75" alpha="80659656.437326416" sparseCutoff="1.0000000000000000"/>
      <sparseX i="76" alpha="-65024268.630583577" sparseCutoff="1.0000000000000000"/>
      <sparseX i="77" alpha="-102262905.09113944" sparseCutoff="1.0000000000000000"/>
      <sparseX i="78" alpha="70750801.541365474" sparseCutoff="1.0000000000000000"/>
      <sparseX i="79" alpha="21483154.173848171" sparseCutoff="1.0000000000000000"/>
      <sparseX i="80" alpha="66990412.007409483" sparseCutoff="1.0000000000000000"/>
      <sparseX i="81" alpha="195908803.91248012" sparseCutoff="1.0000000000000000"/>
      <sparseX i="82" alpha="74436155.712356493" sparseCutoff="1.0000000000000000"/>
      <sparseX i="83" alpha="-18990998.754094083" sparseCutoff="1.0000000000000000"/>
      <sparseX i="84" alpha="-125141599.65659449" sparseCutoff="1.0000000000000000"/>
      <sparseX i="85" alpha="115464346.83526099" sparseCutoff="1.0000000000000000"/>
      <sparseX i="86" alpha="-50450072.835161947" sparseCutoff="1.0000000000000000"/>
      <sparseX i="87" alpha="-8267577.9610070484" sparseCutoff="1.0000000000000000"/>
      <sparseX i="88" alpha="-5517753.4742056560" sparseCutoff="1.0000000000000000"/>
      <sparseX i="89" alpha="-5517748.8507954981" sparseCutoff="1.0000000000000000"/>
      <sparseX i="90" alpha="-5517730.3202746781" sparseCutoff="1.0000000000000000"/>
      <sparseX i="91" alpha="-116387514.03075702" sparseCutoff="1.0000000000000000"/>
      <sparseX i="92" alpha="-116387484.24496393" sparseCutoff="1.0000000000000000"/>
      <sparseX i="93" alpha="-51064563.927138850" sparseCutoff="1.0000000000000000"/>
      <sparseX i="94" alpha="-51064523.227364473" sparseCutoff="1.0000000000000000"/>
      <sparseX i="95" alpha="76256097.144937828" sparseCutoff="1.0000000000000000"/>
      <sparseX i="96" alpha="-8267696.7037488278" sparseCutoff="1.0000000000000000"/>
      <sparseX i="97" alpha="-103997133.68396838" sparseCutoff="1.0000000000000000"/>
      <sparseX i="98" alpha="301237230.78308916" sparseCutoff="1.0000000000000000"/>
      <sparseX i="99" alpha="5479651.8811175860" sparseCutoff="1.0000000000000000"/>
      <sparseX i="100" alpha="74804058.886872187" sparseCutoff="1.0000000000000000"/>
      <sparseX i="101" alpha="61662427.641696937" sparseCutoff="1.0000000000000000"/>
      <sparseX i="102" alpha="31052231.655778736" sparseCutoff="1.0000000000000000"/>
      <sparseX i="103" alpha="19411164.629936419" sparseCutoff="1.0000000000000000"/>
      <sparseX i="104" alpha="-140967311.21243599" sparseCutoff="1.0000000000000000"/>
      <sparseX i="105" alpha="75425082.770171314" sparseCutoff="1.0000000000000000"/>
      <sparseX i="106" alpha="-118884858.42199613" sparseCutoff="1.0000000000000000"/>
      <sparseX i="107" alpha="-110331820.30454117" sparseCutoff="1.0000000000000000"/>
      <sparseX i="108" alpha="-79425455.642640933" sparseCutoff="1.0000000000000000"/>
      <sparseX i="109" alpha="16820538.446872216" sparseCutoff="1.0000000000000000"/>
      <sparseX i="110" alpha="213179961.73480451" sparseCutoff="1.0000000000000000"/>
      <sparseX i="111" alpha="102448624.43987206" sparseCutoff="1.0000000000000000"/>
      <sparseX i="112" alpha="-121877518.06535143" sparseCutoff="1.0000000000000000"/>
      <sparseX i="113" alpha="-85265944.402026847" sparseCutoff="1.0000000000000000"/>
      <sparseX i="114" alpha="56754137.731701605" sparseCutoff="1.0000000000000000"/>
      <sparseX i="115" alpha="38568785.058749355" sparseCutoff="1.0000000000000000"/>
      <sparseX i="116" alpha="-51903767.615625903" sparseCutoff="1.0000000000000000"/>
      <sparseX i="117" alpha="-51902367.922703974" sparseCutoff="1.0000000000000000"/>
      <sparseX i="118" alpha="-74362178.247349337" sparseCutoff="1.0000000000000000"/>
      <sparseX i="119" alpha="65271397.291348167" sparseCutoff="1.0000000000000000"/>
      <sparseX i="120" alpha="65271399.179116957" sparseCutoff="1.0000000000000000"/>
      <sparseX i="121" alpha="-187023125.45928079" sparseCutoff="1.0000000000000000"/>
      <sparseX i="122" alpha="198711943.60968396" sparseCutoff="1.0000000000000000"/>
      <sparseX i="123" alpha="-99380568.644705549" sparseCutoff="1.0000000000000000"/>
      <sparseX i="124" alpha="-117802935.67864481" sparseCutoff="1.0000000000000000"/>
      <sparseX i="125" alpha="-266607641.94202045" sparseCutoff="1.0000000000000000"/>
      <sparseX i="126" alpha="-45818803.677262589" sparseCutoff="1.0000000000000000"/>
      <sparseX i="127" alpha="-54214151.969274923" sparseCutoff="1.0000000000000000"/>
      <sparseX i="128" alpha="-51900876.896585412" sparseCutoff="1.0000000000000000"/>
      <sparseX i="129" alpha="-268418965.65221733" sparseCutoff="1.0000000000000000"/>
      <sparseX i="130" alpha="-27222130.578818589" sparseCutoff="1.0000000000000000"/>
      <sparseX i="131" alpha="198743556.11885741" sparseCutoff="1.0000000000000000"/>
      <sparseX i="132" alpha="-44952626.503282644" sparseCutoff="1.0000000000000000"/>
      <sparseX i="133" alpha="60203128.494265109" sparseCutoff="1.0000000000000000"/>
      <sparseX i="134" alpha="323040619.53632516" sparseCutoff="1.0000000000000000"/>
      <sparseX i="135" alpha="10229285.971578298" sparseCutoff="1.0000000000000000"/>
      <sparseX i="136" alpha="10229291.615048299" sparseCutoff="1.0000000000000000"/>
      <sparseX i="137" alpha="-32922833.067761790" sparseCutoff="1.0000000000000000"/>
      <sparseX i="138" alpha="-106841406.82042453" sparseCutoff="1.0000000000000000"/>
      <sparseX i="139" alpha="136114556.41088733" sparseCutoff="1.0000000000000000"/>
      <sparseX i="140" alpha="378651109.18067634" sparseCutoff="1.0000000000000000"/>
      <sparseX i="141" alpha="69698736.579277381" sparseCutoff="1.0000000000000000"/>
      <sparseX i="142" alpha="109259752.03600633" sparseCutoff="1.0000000000000000"/>
      <sparseX i="143" alpha="-16130604.465682840" sparseCutoff="1.0000000000000000"/>
      <sparseX i="144" alpha="152181750.31734645" sparseCutoff="1.0000000000000000"/>
      <sparseX i="145" alpha="92589389.002770633" sparseCutoff="1.0000000000000000"/>
      <sparseX i="146" alpha="-24926781.416122079" sparseCutoff="1.0000000000000000"/>
      <sparseX i="147" alpha="-15868931.348754941" sparseCutoff="1.0000000000000000"/>
      <sparseX i="148" alpha="21487558.792739559" sparseCutoff="1.0000000000000000"/>
      <sparseX i="149" alpha="-917896198.00088131" sparseCutoff="1.0000000000000000"/>
      <sparseX i="150" alpha="-116171412.85613248" sparseCutoff="1.0000000000000000"/>
      <sparseX i="151" alpha="204603886.67960602" sparseCutoff="1.0000000000000000"/>
      <sparseX i="152" alpha="403594924.66335607" sparseCutoff="1.0000000000000000"/>
      <sparseX i="153" alpha="-16590666.490297176" sparseCutoff="1.0000000000000000"/>
      <sparseX i="154" alpha="82000375.319122434" sparseCutoff="1.0000000000000000"/>
      <sparseX i="155" alpha="-17433712.578796681" sparseCutoff="1.0000000000000000"/>
      <sparseX i="156" alpha="-115935920.99272002" sparseCutoff="1.0000000000000000"/>
      <sparseX i="157" alpha="-71075319.512546077" sparseCutoff="1.0000000000000000"/>
      <sparseX i="158" alpha="12791074.655855549" sparseCutoff="1.0000000000000000"/>
      <sparseX i="159" alpha="12791053.254111018" sparseCutoff="1.0000000000000000"/>
      <sparseX i="160" alpha="-16014897.405221066" sparseCutoff="1.0000000000000000"/>
      <sparseX i="161" alpha="-27982399.857384518" sparseCutoff="1.0000000000000000"/>
      <sparseX i="162" alpha="-35476037.678489469" sparseCutoff="1.0000000000000000"/>
      <sparseX i="163" alpha="-35476059.067559227" sparseCutoff="1.0000000000000000"/>
      <sparseX i="164" alpha="-63841174.617206603" sparseCutoff="1.0000000000000000"/>
      <sparseX i="165" alpha="-102262732.24169537" sparseCutoff="1.0000000000000000"/>
      <sparseX i="166" alpha="64028540.676700503" sparseCutoff="1.0000000000000000"/>
      <sparseX i="167" alpha="68612796.552530229" sparseCutoff="1.0000000000000000"/>
      <sparseX i="168" alpha="157999880.65284243" sparseCutoff="1.0000000000000000"/>
      <sparseX i="169" alpha="-19311796.107731801" sparseCutoff="1.0000000000000000"/>
      <sparseX i="170" alpha="147671171.99478880" sparseCutoff="1.0000000000000000"/>
      <sparseX i="171" alpha="-71778170.749801353" sparseCutoff="1.0000000000000000"/>
      <sparseX i="172" alpha="142576426.77752578" sparseCutoff="1.0000000000000000"/>
      <sparseX i="173" alpha="111395603.22376706" sparseCutoff="1.0000000000000000"/>
      <sparseX i="174" alpha="-156719237.57632038" sparseCutoff="1.0000000000000000"/>
      <sparseX i="175" alpha="367647375.24480808" sparseCutoff="1.0000000000000000"/>
      <sparseX i="176" alpha="367647416.01334405" sparseCutoff="1.0000000000000000"/>
      <sparseX i="177" alpha="-77141972.788736656" sparseCutoff="1.0000000000000000"/>
      <sparseX i="178" alpha="-335169814.36485809" sparseCutoff="1.0000000000000000"/>
      <sparseX i="179" alpha="-71185840.168836400" sparseCutoff="1.0000000000000000"/>
      <sparseX i="180" alpha="-145162305.36489397" sparseCutoff="1.0000000000000000"/>
      <sparseX i="181" alpha="-33112664.083645754" sparseCutoff="1.0000000000000000"/>
      <sparseX i="182" alpha="-105539944.51058988" sparseCutoff="1.0000000000000000"/>
      <sparseX i="183" alpha="299836540.61090446" sparseCutoff="1.0000000000000000"/>
      <sparseX i="184" alpha="249153890.93493202" sparseCutoff="1.0000000000000000"/>
      <sparseX i="185" alpha="-84622389.426423684" sparseCutoff="1.0000000000000000"/>
      <sparseX i="186" alpha="81573911.807909921" sparseCutoff="1.0000000000000000"/>
      <sparseX i="187" alpha="-331607644.29731393" sparseCutoff="1.0000000000000000"/>
      <sparseX i="188" alpha="-573634.45648090832" sparseCutoff="1.0000000000000000"/>
      <sparseX i="189" alpha="20490955.591221586" sparseCutoff="1.0000000000000000"/>
      <sparseX i="190" alpha="20486989.888139337" sparseCutoff="1.0000000000000000"/>
      <sparseX i="191" alpha="-6945161.6992691047" sparseCutoff="1.0000000000000000"/>
      <sparseX i="192" alpha="242966223.93861088" sparseCutoff="1.0000000000000000"/>
      <sparseX i="193" alpha="-10440219.967512820" sparseCutoff="1.0000000000000000"/>
      <sparseX i="194" alpha="-111045593.66558547" sparseCutoff="1.0000000000000000"/>
      <sparseX i="195" alpha="152014247.72850212" sparseCutoff="1.0000000000000000"/>
      <sparseX i="196" alpha="-79987385.049984738" sparseCutoff="1.0000000000000000"/>
      <sparseX i="197" alpha="-79977226.946274742" sparseCutoff="1.0000000000000000"/>
      <sparseX i="198" alpha="-79985465.459550574" sparseCutoff="1.0000000000000000"/>
      <sparseX i="199" alpha="-3826538.4398374911" sparseCutoff="1.0000000000000000"/>
      <sparseX i="200" alpha="-3825876.9607738149" sparseCutoff="1.0000000000000000"/>
      <sparseX i="201" alpha="-110712318.76043774" sparseCutoff="1.0000000000000000"/>
      <sparseX i="202" alpha="-110705918.35156333" sparseCutoff="1.0000000000000000"/>
      <sparseX i="203" alpha="-51697874.450443313" sparseCutoff="1.0000000000000000"/>
      <sparseX i="204" alpha="-134640963.37754393" sparseCutoff="1.0000000000000000"/>
      <sparseX i="205" alpha="-47911637.412987433" sparseCutoff="1.0000000000000000"/>
      <sparseX i="206" alpha="46044659.599706754" sparseCutoff="1.0000000000000000"/>
      <sparseX i="207" alpha="75427636.009156153" sparseCutoff="1.0000000000000000"/>
      <sparseX i="208" alpha="14999890.138219537" sparseCutoff="1.0000000000000000"/>
      <sparseX i="209" alpha="14999965.289801160" sparseCutoff="1.0000000000000000"/>
      <sparseX i="210" alpha="15003602.054741289" sparseCutoff="1.0000000000000000"/>
      <sparseX i="211" alpha="235374278.22938597" sparseCutoff="1.0000000000000000"/>
      <sparseX i="212" alpha="13275688.465468789" sparseCutoff="1.0000000000000000"/>
      <sparseX i="213" alpha="292920009.93239796" sparseCutoff="1.0000000000000000"/>
      <sparseX i="214" alpha="-291596952.33809203" sparseCutoff="1.0000000000000000"/>
      <sparseX i="215" alpha="-291596362.02460170" sparseCutoff="1.0000000000000000"/>
      <sparseX i="216" alpha="-45400573.386614777" sparseCutoff="1.0000000000000000"/>
      <sparseX i="217" alpha="-147371131.50970379" sparseCutoff="1.0000000000000000"/>
      <sparseX i="218" alpha="-280141237.41090798" sparseCutoff="1.0000000000000000"/>
      <sparseX i="219" alpha="192665320.58980232" sparseCutoff="1.0000000000000000"/>
      <sparseX i="220" alpha="108515563.38951696" sparseCutoff="1.0000000000000000"/>
      <sparseX i="221" alpha="-72922675.708715826" sparseCutoff="1.0000000000000000"/>
      <sparseX i="222" alpha="-139581345.78539899" sparseCutoff="1.0000000000000000"/>
      <sparseX i="223" alpha="-22471602.538752541" sparseCutoff="1.0000000000000000"/>
      <sparseX i="224" alpha="39304724.709087297" sparseCutoff="1.0000000000000000"/>
      <sparseX i="225" alpha="39304694.717163280" sparseCutoff="1.0000000000000000"/>
      <sparseX i="226" alpha="139477168.21288463" sparseCutoff="1.0000000000000000"/>
      <sparseX i="227" alpha="-102762476.71827479" sparseCutoff="1.0000000000000000"/>
      <sparseX i="228" alpha="34999700.923815034" sparseCutoff="1.0000000000000000"/>
      <sparseX i="229" alpha="2080693.3187465325" sparseCutoff="1.0000000000000000"/>
      <sparseX i="230" alpha="-63607429.901026793" sparseCutoff="1.0000000000000000"/>
      <sparseX i="231" alpha="164899949.77829495" sparseCutoff="1.0000000000000000"/>
      <sparseX i="232" alpha="-80535064.888955742" sparseCutoff="1.0000000000000000"/>
      <sparseX i="233" alpha="216037314.69383955" sparseCutoff="1.0000000000000000"/>
      <sparseX i="234" alpha="-293848527.04600859" sparseCutoff="1.0000000000000000"/>
      <sparseX i="235" alpha="-237554598.93345302" sparseCutoff="1.0000000000000000"/>
      <sparseX i="236" alpha="-237559312.87838274" sparseCutoff="1.0000000000000000"/>
      <sparseX i="237" alpha="-138297165.23857027" sparseCutoff="1.0000000000000000"/>
      <sparseX i="238" alpha="-74320421.294707537" sparseCutoff="1.0000000000000000"/>
      <sparseX i="239" alpha="146057942.89777988" sparseCutoff="1.0000000000000000"/>
      <sparseX i="240" alpha="-285683724.19342488" sparseCutoff="1.0000000000000000"/>
      <sparseX i="241" alpha="95563849.558320120" sparseCutoff="1.0000000000000000"/>
      <sparseX i="242" alpha="58662376.853877120" sparseCutoff="1.0000000000000000"/>
      <sparseX i="243" alpha="-48853220.636678927" sparseCutoff="1.0000000000000000"/>
      <sparseX i="244" alpha="-118119041.45191105" sparseCutoff="1.0000000000000000"/>
      <sparseX i="245" alpha="-80573478.883117378" sparseCutoff="1.0000000000000000"/>
      <sparseX i="246" alpha="-80600737.049179167" sparseCutoff="1.0000000000000000"/>
      <sparseX i="247" alpha="370166953.06413239" sparseCutoff="1.0000000000000000"/>
      <sparseX i="248" alpha="-9829121.5610649269" sparseCutoff="1.0000000000000000"/>
      <sparseX i="249" alpha="-95914001.154819041" sparseCutoff="1.0000000000000000"/>
      <sparseX i="250" alpha="-6484661.9864738416" sparseCutoff="1.0000000000000000"/>
      <sparseX i="251" alpha="14435059.277981842" sparseCutoff="1.0000000000000000"/>
      <sparseX i="252" alpha="14434716.035627475" sparseCutoff="1.0000000000000000"/>
      <sparseX i="253" alpha="-94890378.930991590" sparseCutoff="1.0000000000000000"/>
      <sparseX i="254" alpha="13203980.362634111" sparseCutoff="1.0000000000000000"/>
      <sparseX i="255" alpha="13204383.693212729" sparseCutoff="1.0000000000000000"/>
      <sparseX i="256" alpha="35796881.714525647" sparseCutoff="1.0000000000000000"/>
      <sparseX i="257" alpha="35794474.507318527" sparseCutoff="1.0000000000000000"/>
      <sparseX i="258" alpha="34929745.381574042" sparseCutoff="1.0000000000000000"/>
      <sparseX i="259" alpha="878470.97688501189" sparseCutoff="1.0000000000000000"/>
      <sparseX i="260" alpha="878535.06419746170" sparseCutoff="1.0000000000000000"/>
      <sparseX i="261" alpha="73288474.127708033" sparseCutoff="1.0000000000000000"/>
      <sparseX i="262" alpha="73288031.849252164" sparseCutoff="1.0000000000000000"/>
      <sparseX i="263" alpha="-4947710.0135237137" sparseCutoff="1.0000000000000000"/>
      <sparseX i="264" alpha="-41772300.717044361" sparseCutoff="1.0000000000000000"/>
      <sparseX i="265" alpha="-41772308.256332852" sparseCutoff="1.0000000000000000"/>
      <sparseX i="266" alpha="-22226685.860905603" sparseCutoff="1.0000000000000000"/>
      <sparseX i="267" alpha="-148746869.79277626" sparseCutoff="1.0000000000000000"/>
      <sparseX i="268" alpha="196570536.47525179" sparseCutoff="1.0000000000000000"/>
      <sparseX i="269" alpha="10667452.821824787" sparseCutoff="1.0000000000000000"/>
      <sparseX i="270" alpha="88509659.726191700" sparseCutoff="1.0000000000000000"/>
      <sparseX i="271" alpha="178861165.76616240" sparseCutoff="1.0000000000000000"/>
      <sparseX i="272" alpha="83014310.723202705" sparseCutoff="1.0000000000000000"/>
      <sparseX i="273" alpha="75570528.087360591" sparseCutoff="1.0000000000000000"/>
      <sparseX i="274" alpha="75572303.795903027" sparseCutoff="1.0000000000000000"/>
      <sparseX i="275" alpha="-33485105.355695207" sparseCutoff="1.0000000000000000"/>
      <sparseX i="276" alpha="31375179.906438060" sparseCutoff="1.0000000000000000"/>
      <sparseX i="277" alpha="-29493773.400717024" sparseCutoff="1.0000000000000000"/>
      <sparseX i="278" alpha="-29501690.032047108" sparseCutoff="1.0000000000000000"/>
      <sparseX i="279" alpha="-25200795.898040064" sparseCutoff="1.0000000000000000"/>
      <sparseX i="280" alpha="4448195.2027167352" sparseCutoff="1.0000000000000000"/>
      <sparseX i="281" alpha="-16004742.347527726" sparseCutoff="1.0000000000000000"/>
      <sparseX i="282" alpha="159298588.64417148" sparseCutoff="1.0000000000000000"/>
      <sparseX i="283" alpha="97296756.730723515" sparseCutoff="1.0000000000000000"/>
      <sparseX i="284" alpha="76108935.115868568" sparseCutoff="1.0000000000000000"/>
      <sparseX i="285" alpha="-239558386.57036188" sparseCutoff="1.0000000000000000"/>
      <sparseX i="286" alpha="-166419875.51656029" sparseCutoff="1.0000000000000000"/>
      <sparseX i="287" alpha="-91425196.495413586" sparseCutoff="1.0000000000000000"/>
      <sparseX i="288" alpha="-86140653.732931152" sparseCutoff="1.0000000000000000"/>
      <sparseX i="289" alpha="-434910546.44288582" sparseCutoff="1.0000000000000000"/>
      <sparseX i="290" alpha="-117753569.65409330" sparseCutoff="1.0000000000000000"/>
      <sparseX i="291" alpha="24828715.166709021" sparseCutoff="1.0000000000000000"/>
      <sparseX i="292" alpha="-197640025.10397911" sparseCutoff="1.0000000000000000"/>
      <sparseX i="293" alpha="-380001369.05680794" sparseCutoff="1.0000000000000000"/>
      <sparseX i="294" alpha="-421628643.86238623" sparseCutoff="1.0000000000000000"/>
      <sparseX i="295" alpha="-423379988.76544291" sparseCutoff="1.0000000000000000"/>
      <sparseX i="296" alpha="-394075205.75028098" sparseCutoff="1.0000000000000000"/>
      <sparseX i="297" alpha="-135302384.98755378" sparseCutoff="1.0000000000000000"/>
      <sparseX i="298" alpha="82401240.476112977" sparseCutoff="1.0000000000000000"/>
      <sparseX i="299" alpha="69965578.149370715" sparseCutoff="1.0000000000000000"/>
      <sparseX i="300" alpha="69928193.661600783" sparseCutoff="1.0000000000000000"/>
      <sparseX i="301" alpha="31347509.854336463" sparseCutoff="1.0000000000000000"/>
      <sparseX i="302" alpha="29937781.932560664" sparseCutoff="1.0000000000000000"/>
      <sparseX i="303" alpha="-680160.25586792955" sparseCutoff="1.0000000000000000"/>
      <sparseX i="304" alpha="-680182.83674788964" sparseCutoff="1.0000000000000000"/>
      <sparseX i="305" alpha="42640825.958206609" sparseCutoff="1.0000000000000000"/>
      <sparseX i="306" alpha="32287770.716374688" sparseCutoff="1.0000000000000000"/>
      <sparseX i="307" alpha="-22582761.029854797" sparseCutoff="1.0000000000000000"/>
      <sparseX i="308" alpha="-225063313.16585073" sparseCutoff="1.0000000000000000"/>
      <sparseX i="309" alpha="-248435040.20026049" sparseCutoff="1.0000000000000000"/>
      <sparseX i="310" alpha="261455066.50070491" sparseCutoff="1.0000000000000000"/>
      <sparseX i="311" alpha="-81719834.017539605" sparseCutoff="1.0000000000000000"/>
      <sparseX i="312" alpha="-142005865.94897270" sparseCutoff="1.0000000000000000"/>
      <sparseX i="313" alpha="68626205.530312032" sparseCutoff="1.0000000000000000"/>
      <sparseX i="314" alpha="73161921.824308589" sparseCutoff="1.0000000000000000"/>
      <sparseX i="315" alpha="173735896.84715754" sparseCutoff="1.0000000000000000"/>
      <sparseX i="316" alpha="166860795.68133840" sparseCutoff="1.0000000000000000"/>
      <sparseX i="317" alpha="-304297682.66792083" sparseCutoff="1.0000000000000000"/>
      <sparseX i="318" alpha="74345225.803084940" sparseCutoff="1.0000000000000000"/>
      <sparseX i="319" alpha="-68429420.984572724" sparseCutoff="1.0000000000000000"/>
      <sparseX i="320" alpha="-46161601.343051314" sparseCutoff="1.0000000000000000"/>
      <sparseX i="321" alpha="-156637095.93378341" sparseCutoff="1.0000000000000000"/>
      <sparseX i="322" alpha="-73682633.628048554" sparseCutoff="1.0000000000000000"/>
      <sparseX i="323" alpha="-73680376.330148801" sparseCutoff="1.0000000000000000"/>
      <sparseX i="324" alpha="50704408.678797841" sparseCutoff="1.0000000000000000"/>
      <sparseX i="325" alpha="-102352694.21642344" sparseCutoff="1.0000000000000000"/>
      <sparseX i="326" alpha="-24606937.634326786" sparseCutoff="1.0000000000000000"/>
      <sparseX i="327" alpha="-48630372.620932683" sparseCutoff="1.0000000000000000"/>
      <sparseX i="328" alpha="39734068.018796541" sparseCutoff="1.0000000000000000"/>
      <sparseX i="329" alpha="-167616617.28564137" sparseCutoff="1.0000000000000000"/>
      <sparseX i="330" alpha="455560116.91854739" sparseCutoff="1.0000000000000000"/>
      <sparseX i="331" alpha="-427060058.53425711" sparseCutoff="1.0000000000000000"/>
      <sparseX i="332" alpha="72000072.844188467" sparseCutoff="1.0000000000000000"/>
      <sparseX i="333" alpha="6983636.2472677892" sparseCutoff="1.0000000000000000"/>
      <sparseX i="334" alpha="7001562.3909527082" sparseCutoff="1.0000000000000000"/>
      <sparseX i="335" alpha="6999949.2189493952" sparseCutoff="1.0000000000000000"/>
      <sparseX i="336" alpha="-65301270.258435741" sparseCutoff="1.0000000000000000"/>
      <sparseX i="337" alpha="-65284537.719125010" sparseCutoff="1.0000000000000000"/>
      <sparseX i="338" alpha="-65314391.039294064" sparseCutoff="1.0000000000000000"/>
      <sparseX i="339" alpha="-247090184.95244923" sparseCutoff="1.0000000000000000"/>
      <sparseX i="340" alpha="-28305609.761429656" sparseCutoff="1.0000000000000000"/>
      <sparseX i="341" alpha="-28306703.543103602" sparseCutoff="1.0000000000000000"/>
      <sparseX i="342" alpha="-213807113.63171443" sparseCutoff="1.0000000000000000"/>
      <sparseX i="343" alpha="205648524.06130397" sparseCutoff="1.0000000000000000"/>
      <sparseX i="344" alpha="-165559733.36358416" sparseCutoff="1.0000000000000000"/>
      <sparseX i="345" alpha="-414132906.70919770" sparseCutoff="1.0000000000000000"/>
      <sparseX i="346" alpha="66171623.885520592" sparseCutoff="1.0000000000000000"/>
      <sparseX i="347" alpha="66171348.483834438" sparseCutoff="1.0000000000000000"/>
      <sparseX i="348" alpha="192015617.80202240" sparseCutoff="1.0000000000000000"/>
      <sparseX i="349" alpha="12680244.658456676" sparseCutoff="1.0000000000000000"/>
      <sparseX i="350" alpha="-137954469.44912821" sparseCutoff="1.0000000000000000"/>
      <sparseX i="351" alpha="157029124.72564736" sparseCutoff="1.0000000000000000"/>
      <sparseX i="352" alpha="-67178177.475037530" sparseCutoff="1.0000000000000000"/>
      <sparseX i="353" alpha="78816548.152421072" sparseCutoff="1.0000000000000000"/>
      <sparseX i="354" alpha="-222097004.13081291" sparseCutoff="1.0000000000000000"/>
      <sparseX i="355" alpha="85300006.160400882" sparseCutoff="1.0000000000000000"/>
      <sparseX i="356" alpha="-155993219.21629798" sparseCutoff="1.0000000000000000"/>
      <sparseX i="357" alpha="-26499538.704202019" sparseCutoff="1.0000000000000000"/>
      <sparseX i="358" alpha="-51434176.147034548" sparseCutoff="1.0000000000000000"/>
      <sparseX i="359" alpha="66262077.680863306" sparseCutoff="1.0000000000000000"/>
      <sparseX i="360" alpha="-27531885.121009745" sparseCutoff="1.0000000000000000"/>
      <sparseX i="361" alpha="281256254.55091000" sparseCutoff="1.0000000000000000"/>
      <sparseX i="362" alpha="-183023241.55243835" sparseCutoff="1.0000000000000000"/>
      <sparseX i="363" alpha="-92013071.061359122" sparseCutoff="1.0000000000000000"/>
      <sparseX i="364" alpha="162650501.57883462" sparseCutoff="1.0000000000000000"/>
      <sparseX i="365" alpha="-70599955.684942260" sparseCutoff="1.0000000000000000"/>
      <sparseX i="366" alpha="-71483180.717139721" sparseCutoff="1.0000000000000000"/>
      <sparseX i="367" alpha="-117166690.16467039" sparseCutoff="1.0000000000000000"/>
      <sparseX i="368" alpha="-140493046.32511967" sparseCutoff="1.0000000000000000"/>
      <sparseX i="369" alpha="10888702.153635573" sparseCutoff="1.0000000000000000"/>
      <sparseX i="370" alpha="-14406764.258726964" sparseCutoff="1.0000000000000000"/>
      <sparseX i="371" alpha="29662135.989070650" sparseCutoff="1.0000000000000000"/>
      <sparseX i="372" alpha="29662078.680034671" sparseCutoff="1.0000000000000000"/>
      <sparseX i="373" alpha="-41571868.438009977" sparseCutoff="1.0000000000000000"/>
      <sparseX i="374" alpha="158178673.21015292" sparseCutoff="1.0000000000000000"/>
      <sparseX i="375" alpha="74479181.445880815" sparseCutoff="1.0000000000000000"/>
      <sparseX i="376" alpha="83725333.742131829" sparseCutoff="1.0000000000000000"/>
      <sparseX i="377" alpha="-204816185.26887521" sparseCutoff="1.0000000000000000"/>
      <sparseX i="378" alpha="70262489.193043530" sparseCutoff="1.0000000000000000"/>
      <sparseX i="379" alpha="-174467898.89408290" sparseCutoff="1.0000000000000000"/>
      <sparseX i="380" alpha="-174471328.21940961" sparseCutoff="1.0000000000000000"/>
      <sparseX i="381" alpha="-210171141.72254655" sparseCutoff="1.0000000000000000"/>
      <sparseX i="382" alpha="-136659836.78325036" sparseCutoff="1.0000000000000000"/>
      <sparseX i="383" alpha="-112509857.48901287" sparseCutoff="1.0000000000000000"/>
      <sparseX i="384" alpha="-76686176.235285208" sparseCutoff="1.0000000000000000"/>
      <sparseX i="385" alpha="447679622.06072623" sparseCutoff="1.0000000000000000"/>
      <sparseX i="386" alpha="51602564.883497469" sparseCutoff="1.0000000000000000"/>
      <sparseX i="387" alpha="51600053.720342293" sparseCutoff="1.0000000000000000"/>
      <sparseX i="388" alpha="-167620597.70868886" sparseCutoff="1.0000000000000000"/>
      <sparseX i="389" alpha="-101297227.39853311" sparseCutoff="1.0000000000000000"/>
      <sparseX i="390" alpha="-101297415.71529360" sparseCutoff="1.0000000000000000"/>
      <sparseX i="391" alpha="-43001995.669360295" sparseCutoff="1.0000000000000000"/>
      <sparseX i="392" alpha="29269930.028562412" sparseCutoff="1.0000000000000000"/>
      <sparseX i="393" alpha="230076858.12005219" sparseCutoff="1.0000000000000000"/>
      <sparseX i="394" alpha="23865330.332164496" sparseCutoff="1.0000000000000000"/>
      <sparseX i="395" alpha="-73189935.337817609" sparseCutoff="1.0000000000000000"/>
      <sparseX i="396" alpha="-69000639.924787834" sparseCutoff="1.0000000000000000"/>
      <sparseX i="397" alpha="-118919181.56536824" sparseCutoff="1.0000000000000000"/>
      <sparseX i="398" alpha="-118918423.80522586" sparseCutoff="1.0000000000000000"/>
      <sparseX i="399" alpha="-242871970.56272879" sparseCutoff="1.0000000000000000"/>
      <sparseX i="400" alpha="-36783401.452512547" sparseCutoff="1.0000000000000000"/>
      <sparseX i="401" alpha="170063563.61472964" sparseCutoff="1.0000000000000000"/>
      <sparseX i="402" alpha="177155653.27097929" sparseCutoff="1.0000000000000000"/>
      <sparseX i="403" alpha="235182925.77818647" sparseCutoff="1.0000000000000000"/>
      <sparseX i="404" alpha="-114076973.97343710" sparseCutoff="1.0000000000000000"/>
      <sparseX i="405" alpha="-114077388.82443531" sparseCutoff="1.0000000000000000"/>
      <sparseX i="406" alpha="-114081781.40789612" sparseCutoff="1.0000000000000000"/>
      <sparseX i="407" alpha="-114079060.34494343" sparseCutoff="1.0000000000000000"/>
      <sparseX i="408" alpha="21273157.770255901" sparseCutoff="1.0000000000000000"/>
      <sparseX i="409" alpha="21275690.117648259" sparseCutoff="1.0000000000000000"/>
      <sparseX i="410" alpha="46751221.626637600" sparseCutoff="1.0000000000000000"/>
      <sparseX i="411" alpha="46754045.965935074" sparseCutoff="1.0000000000000000"/>
      <sparseX i="412" alpha="44977234.887431353" sparseCutoff="1.0000000000000000"/>
      <sparseX i="413" alpha="44950992.206478842" sparseCutoff="1.0000000000000000"/>
      <sparseX i="414" alpha="350521016.75279516" sparseCutoff="1.0000000000000000"/>
      <sparseX i="415" alpha="-131123149.15557432" sparseCutoff="1.0000000000000000"/>
      <sparseX i="416" alpha="-90806070.988596365" sparseCutoff="1.0000000000000000"/>
      <sparseX i="417" alpha="-92103578.082433835" sparseCutoff="1.0000000000000000"/>
      <sparseX i="418" alpha="-191099755.56153965" sparseCutoff="1.0000000000000000"/>
      <sparseX i="419" alpha="-15903701.164933447" sparseCutoff="1.0000000000000000"/>
      <sparseX i="420" alpha="-14445073.928396208" sparseCutoff="1.0000000000000000"/>
      <sparseX i="421" alpha="73783200.374740347" sparseCutoff="1.0000000000000000"/>
      <sparseX i="422" alpha="-428265480.93555868" sparseCutoff="1.0000000000000000"/>
      <sparseX i="423" alpha="-126522843.20100416" sparseCutoff="1.0000000000000000"/>
      <sparseX i="424" alpha="32963819.938255828" sparseCutoff="1.0000000000000000"/>
      <sparseX i="425" alpha="-181130347.99675778" sparseCutoff="1.0000000000000000"/>
      <sparseX i="426" alpha="64803179.197655387" sparseCutoff="1.0000000000000000"/>
      <sparseX i="427" alpha="107749768.47265962" sparseCutoff="1.0000000000000000"/>
      <sparseX i="428" alpha="-62599284.629245497" sparseCutoff="1.0000000000000000"/>
      <sparseX i="429" alpha="-26359162.609496579" sparseCutoff="1.0000000000000000"/>
      <sparseX i="430" alpha="28135211.863030296" sparseCutoff="1.0000000000000000"/>
      <sparseX i="431" alpha="-88918904.463677496" sparseCutoff="1.0000000000000000"/>
      <sparseX i="432" alpha="-99553048.716624528" sparseCutoff="1.0000000000000000"/>
      <sparseX i="433" alpha="-99551344.776998103" sparseCutoff="1.0000000000000000"/>
      <sparseX i="434" alpha="122228042.00016432" sparseCutoff="1.0000000000000000"/>
      <sparseX i="435" alpha="66227212.148946032" sparseCutoff="1.0000000000000000"/>
      <sparseX i="436" alpha="189375211.21916744" sparseCutoff="1.0000000000000000"/>
      <sparseX i="437" alpha="-171911013.55174834" sparseCutoff="1.0000000000000000"/>
      <sparseX i="438" alpha="62250872.084848225" sparseCutoff="1.0000000000000000"/>
      <sparseX i="439" alpha="26923476.946714841" sparseCutoff="1.0000000000000000"/>
      <sparseX i="440" alpha="-53609389.931846127" sparseCutoff="1.0000000000000000"/>
      <sparseX i="441" alpha="-188678440.36104757" sparseCutoff="1.0000000000000000"/>
      <sparseX i="442" alpha="-179322728.14929003" sparseCutoff="1.0000000000000000"/>
      <sparseX i="443" alpha="58124193.546281710" sparseCutoff="1.0000000000000000"/>
      <sparseX i="444" alpha="-182221195.37688860" sparseCutoff="1.0000000000000000"/>
      <sparseX i="445" alpha="58591371.631722949" sparseCutoff="1.0000000000000000"/>
      <sparseX i="446" alpha="55106707.502520852" sparseCutoff="1.0000000000000000"/>
      <sparseX i="447" alpha="-157405346.50007597" sparseCutoff="1.0000000000000000"/>
      <sparseX i="448" alpha="123398336.31040040" sparseCutoff="1.0000000000000000"/>
      <sparseX i="449" alpha="-15545152.702114465" sparseCutoff="1.0000000000000000"/>
      <sparseX i="450" alpha="27800904.743857328" sparseCutoff="1.0000000000000000"/>
      <sparseX i="451" alpha="24232613.074674871" sparseCutoff="1.0000000000000000"/>
      <sparseX i="452" alpha="-2428595.6723639769" sparseCutoff="1.0000000000000000"/>
      <sparseX i="453" alpha="-72894259.310781613" sparseCutoff="1.0000000000000000"/>
      <sparseX i="454" alpha="-285076568.62245345" sparseCutoff="1.0000000000000000"/>
      <sparseX i="455" alpha="296588278.50346810" sparseCutoff="1.0000000000000000"/>
      <sparseX i="456" alpha="52541986.748277932" sparseCutoff="1.0000000000000000"/>
      <sparseX i="457" alpha="51446543.046593882" sparseCutoff="1.0000000000000000"/>
      <sparseX i="458" alpha="50704144.023248374" sparseCutoff="1.0000000000000000"/>
      <sparseX i="459" alpha="50706052.535943277" sparseCutoff="1.0000000000000000"/>
      <sparseX i="460" alpha="-113357616.95694512" sparseCutoff="1.0000000000000000"/>
      <sparseX i="461" alpha="-113355889.17691430" sparseCutoff="1.0000000000000000"/>
      <sparseX i="462" alpha="-113338230.58879672" sparseCutoff="1.0000000000000000"/>
      <sparseX i="463" alpha="24637948.163021572" sparseCutoff="1.0000000000000000"/>
      <sparseX i="464" alpha="-34933654.962361045" sparseCutoff="1.0000000000000000"/>
      <sparseX i="465" alpha="21403131.892519936" sparseCutoff="1.0000000000000000"/>
      <sparseX i="466" alpha="-172898547.88098592" sparseCutoff="1.0000000000000000"/>
      <sparseX i="467" alpha="-149364354.81104258" sparseCutoff="1.0000000000000000"/>
      <sparseX i="468" alpha="-149362836.22162893" sparseCutoff="1.0000000000000000"/>
      <sparseX i="469" alpha="-149364569.16451108" sparseCutoff="1.0000000000000000"/>
      <sparseX i="470" alpha="-149359679.82601154" sparseCutoff="1.0000000000000000"/>
      <sparseX i="471" alpha="-140307336.38141388" sparseCutoff="1.0000000000000000"/>
      <sparseX i="472" alpha="113792411.20927095" sparseCutoff="1.0000000000000000"/>
      <sparseX i="473" alpha="-21549250.313735425" sparseCutoff="1.0000000000000000"/>
      <sparseX i="474" alpha="-21542649.603428405" sparseCutoff="1.0000000000000000"/>
      <sparseX i="475" alpha="-21557891.322994094" sparseCutoff="1.0000000000000000"/>
      <sparseX i="476" alpha="-126098469.05641244" sparseCutoff="1.0000000000000000"/>
      <sparseX i="477" alpha="161596046.64267862" sparseCutoff="1.0000000000000000"/>
      <sparseX i="478" alpha="67661623.252506748" sparseCutoff="1.0000000000000000"/>
      <sparseX i="479" alpha="87425301.739894301" sparseCutoff="1.0000000000000000"/>
      <sparseX i="480" alpha="-87200617.709684208" sparseCutoff="1.0000000000000000"/>
      <sparseX i="481" alpha="114592624.73459992" sparseCutoff="1.0000000000000000"/>
      <sparseX i="482" alpha="-81398349.610531673" sparseCutoff="1.0000000000000000"/>
      <sparseX i="483" alpha="-17892068.024927784" sparseCutoff="1.0000000000000000"/>
      <sparseX i="484" alpha="-29554176.764548823" sparseCutoff="1.0000000000000000"/>
      <sparseX i="485" alpha="-29539270.785552852" sparseCutoff="1.0000000000000000"/>
      <sparseX i="486" alpha="74766259.189965919" sparseCutoff="1.0000000000000000"/>
      <sparseX i="487" alpha="-192977756.26486212" sparseCutoff="1.0000000000000000"/>
      <sparseX i="488" alpha="-30630673.156330481" sparseCutoff="1.0000000000000000"/>
      <sparseX i="489" alpha="97903169.246461734" sparseCutoff="1.0000000000000000"/>
      <sparseX i="490" alpha="-27216029.130339507" sparseCutoff="1.0000000000000000"/>
      <sparseX i="491" alpha="35460748.123281978" sparseCutoff="1.0000000000000000"/>
      <sparseX i="492" alpha="35495978.926949725" sparseCutoff="1.0000000000000000"/>
      <sparseX i="493" alpha="35460756.353934363" sparseCutoff="1.0000000000000000"/>
      <sparseX i="494" alpha="35436364.648886517" sparseCutoff="1.0000000000000000"/>
      <sparseX i="495" alpha="-344205148.79495060" sparseCutoff="1.0000000000000000"/>
      <sparseX i="496" alpha="-344215817.90650451" sparseCutoff="1.0000000000000000"/>
      <sparseX i="497" alpha="482742.89966292679" sparseCutoff="1.0000000000000000"/>
      <sparseX i="498" alpha="479586.77758990065" sparseCutoff="1.0000000000000000"/>
      <sparseX i="499" alpha="180213284.31059572" sparseCutoff="1.0000000000000000"/>
      <sparseX i="500" alpha="179957976.83429143" sparseCutoff="1.0000000000000000"/>
      <sparseX i="501" alpha="-309032112.04697466" sparseCutoff="1.0000000000000000"/>
      <sparseX i="502" alpha="-95267251.659029275" sparseCutoff="1.0000000000000000"/>
      <sparseX i="503" alpha="-95268204.036411509" sparseCutoff="1.0000000000000000"/>
      <sparseX i="504" alpha="-77805449.204686001" sparseCutoff="1.0000000000000000"/>
      <sparseX i="505" alpha="-244440296.21632695" sparseCutoff="1.0000000000000000"/>
      <sparseX i="506" alpha="-61384120.188895844" sparseCutoff="1.0000000000000000"/>
      <sparseX i="507" alpha="273846397.19732481" sparseCutoff="1.0000000000000000"/>
      <sparseX i="508" alpha="210340774.69968820" sparseCutoff="1.0000000000000000"/>
      <sparseX i="509" alpha="-212948629.74082613" sparseCutoff="1.0000000000000000"/>
      <sparseX i="510" alpha="129033585.19158410" sparseCutoff="1.0000000000000000"/>
      <sparseX i="511" alpha="-159866146.66304591" sparseCutoff="1.0000000000000000"/>
      <sparseX i="512" alpha="-346804576.54853845" sparseCutoff="1.0000000000000000"/>
      <sparseX i="513" alpha="18769233.953103170" sparseCutoff="1.0000000000000000"/>
      <sparseX i="514" alpha="18769152.912458058" sparseCutoff="1.0000000000000000"/>
      <sparseX i="515" alpha="18769262.109686140" sparseCutoff="1.0000000000000000"/>
      <sparseX i="516" alpha="-135017386.09282273" sparseCutoff="1.0000000000000000"/>
      <sparseX i="517" alpha="-163885177.41438010" sparseCutoff="1.0000000000000000"/>
      <sparseX i="518" alpha="110651783.94284384" sparseCutoff="1.0000000000000000"/>
      <sparseX i="519" alpha="-132806575.87231654" sparseCutoff="1.0000000000000000"/>
      <sparseX i="520" alpha="-74060970.496065259" sparseCutoff="1.0000000000000000"/>
      <sparseX i="521" alpha="-79547155.058115020" sparseCutoff="1.0000000000000000"/>
      <sparseX i="522" alpha="-2136478.5685623665" sparseCutoff="1.0000000000000000"/>
      <sparseX i="523" alpha="-2151748.3797878278" sparseCutoff="1.0000000000000000"/>
      <sparseX i="524" alpha="-20338159.127502020" sparseCutoff="1.0000000000000000"/>
      <sparseX i="525" alpha="450061325.32038689" sparseCutoff="1.0000000000000000"/>
      <sparseX i="526" alpha="-158082102.99701115" sparseCutoff="1.0000000000000000"/>
      <sparseX i="527" alpha="-192271169.46697605" sparseCutoff="1.0000000000000000"/>
      <sparseX i="528" alpha="16134981.537553793" sparseCutoff="1.0000000000000000"/>
      <sparseX i="529" alpha="-54915838.167274833" sparseCutoff="1.0000000000000000"/>
      <sparseX i="530" alpha="-54915454.790895298" sparseCutoff="1.0000000000000000"/>
      <sparseX i="531" alpha="-54919185.068971433" sparseCutoff="1.0000000000000000"/>
      <sparseX i="532" alpha="235428972.84562588" sparseCutoff="1.0000000000000000"/>
      <sparseX i="533" alpha="85014370.079163179" sparseCutoff="1.0000000000000000"/>
      <sparseX i="534" alpha="96405415.393800020" sparseCutoff="1.0000000000000000"/>
      <sparseX i="535" alpha="422731.27076346288" sparseCutoff="1.0000000000000000"/>
      <sparseX i="536" alpha="278135673.28624231" sparseCutoff="1.0000000000000000"/>
      <sparseX i="537" alpha="-69794081.766193300" sparseCutoff="1.0000000000000000"/>
      <sparseX i="538" alpha="167390965.79467112" sparseCutoff="1.0000000000000000"/>
      <sparseX i="539" alpha="167390963.80660090" sparseCutoff="1.0000000000000000"/>
      <sparseX i="540" alpha="75201091.713335797" sparseCutoff="1.0000000000000000"/>
      <sparseX i="541" alpha="94365707.594608337" sparseCutoff="1.0000000000000000"/>
      <sparseX i="542" alpha="-241843254.89797968" sparseCutoff="1.0000000000000000"/>
      <sparseX i="543" alpha="-47186288.327871211" sparseCutoff="1.0000000000000000"/>
      <sparseX i="544" alpha="-147638739.07740489" sparseCutoff="1.0000000000000000"/>
      <sparseX i="545" alpha="-218303847.98875564" sparseCutoff="1.0000000000000000"/>
      <sparseX i="546" alpha="244175152.44333848" sparseCutoff="1.0000000000000000"/>
      <sparseX i="547" alpha="25558102.559083492" sparseCutoff="1.0000000000000000"/>
      <sparseX i="548" alpha="-143518458.32871398" sparseCutoff="1.0000000000000000"/>
      <sparseX i="549" alpha="63751192.853028983" sparseCutoff="1.0000000000000000"/>
      <sparseX i="550" alpha="40370161.232118793" sparseCutoff="1.0000000000000000"/>
      <sparseX i="551" alpha="-46447260.567407802" sparseCutoff="1.0000000000000000"/>
      <sparseX i="552" alpha="376417217.59090865" sparseCutoff="1.0000000000000000"/>
      <sparseX i="553" alpha="-204585320.93281224" sparseCutoff="1.0000000000000000"/>
      <sparseX i="554" alpha="21129576.837518398" sparseCutoff="1.0000000000000000"/>
      <sparseX i="555" alpha="-181309187.10938713" sparseCutoff="1.0000000000000000"/>
      <sparseX i="556" alpha="-169421967.81580558" sparseCutoff="1.0000000000000000"/>
      <sparseX i="557" alpha="87213529.502126053" sparseCutoff="1.0000000000000000"/>
      <sparseX i="558" alpha="49082849.495633006" sparseCutoff="1.0000000000000000"/>
      <sparseX i="559" alpha="-51930165.976044811" sparseCutoff="1.0000000000000000"/>
      <sparseX i="560" alpha="113705269.72440307" sparseCutoff="1.0000000000000000"/>
      <sparseX i="561" alpha="113566457.20295633" sparseCutoff="1.0000000000000000"/>
      <sparseX i="562" alpha="113565028.23870303" sparseCutoff="1.0000000000000000"/>
      <sparseX i="563" alpha="148803209.72850442" sparseCutoff="1.0000000000000000"/>
      <sparseX i="564" alpha="31613393.274168402" sparseCutoff="1.0000000000000000"/>
      <sparseX i="565" alpha="31613142.532935042" sparseCutoff="1.0000000000000000"/>
      <sparseX i="566" alpha="31613481.968402173" sparseCutoff="1.0000000000000000"/>
      <sparseX i="567" alpha="163191496.81599542" sparseCutoff="1.0000000000000000"/>
      <sparseX i="568" alpha="-1877449.3657398792" sparseCutoff="1.0000000000000000"/>
      <sparseX i="569" alpha="110434379.04431671" sparseCutoff="1.0000000000000000"/>
      <sparseX i="570" alpha="110435815.74349539" sparseCutoff="1.0000000000000000"/>
      <sparseX i="571" alpha="115957512.14354350" sparseCutoff="1.0000000000000000"/>
      <sparseX i="572" alpha="-128483914.16660513" sparseCutoff="1.0000000000000000"/>
      <sparseX i="573" alpha="-128478303.74612695" sparseCutoff="1.0000000000000000"/>
      <sparseX i="574" alpha="-174063476.99727315" sparseCutoff="1.0000000000000000"/>
      <sparseX i="575" alpha="-180163271.34196171" sparseCutoff="1.0000000000000000"/>
      <sparseX i="576" alpha="79674324.646294639" sparseCutoff="1.0000000000000000"/>
      <sparseX i="577" alpha="18876920.600406457" sparseCutoff="1.0000000000000000"/>
      <sparseX i="578" alpha="18876698.459171556" sparseCutoff="1.0000000000000000"/>
      <sparseX i="579" alpha="114764997.60613459" sparseCutoff="1.0000000000000000"/>
      <sparseX i="580" alpha="-3498870.9628111827" sparseCutoff="1.0000000000000000"/>
      <sparseX i="581" alpha="155904370.04746163" sparseCutoff="1.0000000000000000"/>
      <sparseX i="582" alpha="-128990918.45024744" sparseCutoff="1.0000000000000000"/>
      <sparseX i="583" alpha="-69941952.636436269" sparseCutoff="1.0000000000000000"/>
      <sparseX i="584" alpha="58949855.789507866" sparseCutoff="1.0000000000000000"/>
      <sparseX i="585" alpha="-62871600.910789393" sparseCutoff="1.0000000000000000"/>
      <sparseX i="586" alpha="10720919.981988713" sparseCutoff="1.0000000000000000"/>
      <sparseX i="587" alpha="15624479.454279875" sparseCutoff="1.0000000000000000"/>
      <sparseX i="588" alpha="-15668008.604525885" sparseCutoff="1.0000000000000000"/>
      <sparseX i="589" alpha="333089236.31575859" sparseCutoff="1.0000000000000000"/>
      <sparseX i="590" alpha="328700111.44786435" sparseCutoff="1.0000000000000000"/>
      <sparseX i="591" alpha="134782272.54800254" sparseCutoff="1.0000000000000000"/>
      <sparseX i="592" alpha="149562520.19059324" sparseCutoff="1.0000000000000000"/>
      <sparseX i="593" alpha="-47332815.593503609" sparseCutoff="1.0000000000000000"/>
      <sparseX i="594" alpha="-47342093.386712372" sparseCutoff="1.0000000000000000"/>
      <sparseX i="595" alpha="11405286.718972374" sparseCutoff="1.0000000000000000"/>
      <sparseX i="596" alpha="-56897729.507865332" sparseCutoff="1.0000000000000000"/>
      <sparseX i="597" alpha="-61902147.132885829" sparseCutoff="1.0000000000000000"/>
      <sparseX i="598" alpha="-26209977.586256966" sparseCutoff="1.0000000000000000"/>
      <sparseX i="599" alpha="11914843.350527657" sparseCutoff="1.0000000000000000"/>
      <sparseX i="600" alpha="-147296951.95083979" sparseCutoff="1.0000000000000000"/>
      <sparseX i="601" alpha="-101861357.57894456" sparseCutoff="1.0000000000000000"/>
      <sparseX i="602" alpha="78135364.252482504" sparseCutoff="1.0000000000000000"/>
      <sparseX i="603" alpha="78135453.576954111" sparseCutoff="1.0000000000000000"/>
      <sparseX i="604" alpha="78132546.086603656" sparseCutoff="1.0000000000000000"/>
      <sparseX i="605" alpha="-113462689.14067249" sparseCutoff="1.0000000000000000"/>
      <sparseX i="606" alpha="-113458655.32456347" sparseCutoff="1.0000000000000000"/>
      <sparseX i="607" alpha="16014651.315238817" sparseCutoff="1.0000000000000000"/>
      <sparseX i="608" alpha="-14812990.034300558" sparseCutoff="1.0000000000000000"/>
      <sparseX i="609" alpha="-217162802.29836607" sparseCutoff="1.0000000000000000"/>
      <sparseX i="610" alpha="-52642304.625943154" sparseCutoff="1.0000000000000000"/>
      <sparseX i="611" alpha="-6759811.4252721909" sparseCutoff="1.0000000000000000"/>
      <sparseX i="612" alpha="47971306.266719110" sparseCutoff="1.0000000000000000"/>
      <sparseX i="613" alpha="-44652427.022481523" sparseCutoff="1.0000000000000000"/>
      <sparseX i="614" alpha="75564786.969639584" sparseCutoff="1.0000000000000000"/>
      <sparseX i="615" alpha="37909333.436439499" sparseCutoff="1.0000000000000000"/>
      <sparseX i="616" alpha="67909391.789433151" sparseCutoff="1.0000000000000000"/>
      <sparseX i="617" alpha="47058040.612319767" sparseCutoff="1.0000000000000000"/>
      <sparseX i="618" alpha="-106606968.55264078" sparseCutoff="1.0000000000000000"/>
      <sparseX i="619" alpha="118352042.05073571" sparseCutoff="1.0000000000000000"/>
      <sparseX i="620" alpha="-28493027.645938713" sparseCutoff="1.0000000000000000"/>
      <sparseX i="621" alpha="430313875.89806730" sparseCutoff="1.0000000000000000"/>
      <sparseX i="622" alpha="33232167.729400806" sparseCutoff="1.0000000000000000"/>
      <sparseX i="623" alpha="-77597464.282046899" sparseCutoff="1.0000000000000000"/>
      <sparseX i="624" alpha="-93913423.150432914" sparseCutoff="1.0000000000000000"/>
      <sparseX i="625" alpha="-93916130.648266882" sparseCutoff="1.0000000000000000"/>
      <sparseX i="626" alpha="21902266.726772305" sparseCutoff="1.0000000000000000"/>
      <sparseX i="627" alpha="58564152.981429815" sparseCutoff="1.0000000000000000"/>
      <sparseX i="628" alpha="-150901827.23372656" sparseCutoff="1.0000000000000000"/>
      <sparseX i="629" alpha="29605005.314148244" sparseCutoff="1.0000000000000000"/>
      <sparseX i="630" alpha="106037988.96456702" sparseCutoff="1.0000000000000000"/>
      <sparseX i="631" alpha="-255195854.28420055" sparseCutoff="1.0000000000000000"/>
      <sparseX i="632" alpha="77997978.242568702" sparseCutoff="1.0000000000000000"/>
      <sparseX i="633" alpha="207967431.75999060" sparseCutoff="1.0000000000000000"/>
      <sparseX i="634" alpha="-68243033.103899002" sparseCutoff="1.0000000000000000"/>
      <sparseX i="635" alpha="-36790478.918969654" sparseCutoff="1.0000000000000000"/>
      <sparseX i="636" alpha="39359052.870977692" sparseCutoff="1.0000000000000000"/>
      <sparseX i="637" alpha="26739994.475547034" sparseCutoff="1.0000000000000000"/>
      <sparseX i="638" alpha="5048365.0682493718" sparseCutoff="1.0000000000000000"/>
      <sparseX i="639" alpha="-25982043.309005555" sparseCutoff="1.0000000000000000"/>
      <sparseX i="640" alpha="-282240702.93943763" sparseCutoff="1.0000000000000000"/>
      <sparseX i="641" alpha="46192350.606100462" sparseCutoff="1.0000000000000000"/>
      <sparseX i="642" alpha="-265287423.16513509" sparseCutoff="1.0000000000000000"/>
      <sparseX i="643" alpha="-141176897.76513234" sparseCutoff="1.0000000000000000"/>
      <sparseX i="644" alpha="395726659.64817244" sparseCutoff="1.0000000000000000"/>
      <sparseX i="645" alpha="-68060097.282416672" sparseCutoff="1.0000000000000000"/>
      <sparseX i="646" alpha="219373463.95156541" sparseCutoff="1.0000000000000000"/>
      <sparseX i="647" alpha="357330370.35655493" sparseCutoff="1.0000000000000000"/>
      <sparseX i="648" alpha="178574810.59966975" sparseCutoff="1.0000000000000000"/>
      <sparseX i="649" alpha="9391457.2448947616" sparseCutoff="1.0000000000000000"/>
      <sparseX i="650" alpha="-50248040.295079954" sparseCutoff="1.0000000000000000"/>
      <sparseX i="651" alpha="-30005768.440671269" sparseCutoff="1.0000000000000000"/>
      <sparseX i="652" alpha="143293446.72966212" sparseCutoff="1.0000000000000000"/>
      <sparseX i="653" alpha="68924774.886836499" sparseCutoff="1.0000000000000000"/>
      <sparseX i="654" alpha="-20911722.177344982" sparseCutoff="1.0000000000000000"/>
      <sparseX i="655" alpha="-37237760.252467141" sparseCutoff="1.0000000000000000"/>
      <sparseX i="656" alpha="-316188267.31744140" sparseCutoff="1.0000000000000000"/>
      <sparseX i="657" alpha="-100921878.10908204" sparseCutoff="1.0000000000000000"/>
      <sparseX i="658" alpha="-50033907.955104902" sparseCutoff="1.0000000000000000"/>
      <sparseX i="659" alpha="181479757.00230238" sparseCutoff="1.0000000000000000"/>
      <sparseX i="660" alpha="78262990.979314774" sparseCutoff="1.0000000000000000"/>
      <sparseX i="661" alpha="78263021.921683222" sparseCutoff="1.0000000000000000"/>
      <sparseX i="662" alpha="-113868699.26645330" sparseCutoff="1.0000000000000000"/>
      <sparseX i="663" alpha="-113868703.94894828" sparseCutoff="1.0000000000000000"/>
      <sparseX i="664" alpha="2354993.5548447967" sparseCutoff="1.0000000000000000"/>
      <sparseX i="665" alpha="2333081.1355118947" sparseCutoff="1.0000000000000000"/>
      <sparseX i="666" alpha="-79082584.431795895" sparseCutoff="1.0000000000000000"/>
      <sparseX i="667" alpha="-147180991.07306007" sparseCutoff="1.0000000000000000"/>
      <sparseX i="668" alpha="260738226.34543985" sparseCutoff="1.0000000000000000"/>
      <sparseX i="669" alpha="47492902.870147794" sparseCutoff="1.0000000000000000"/>
      <sparseX i="670" alpha="-95975429.173955545" sparseCutoff="1.0000000000000000"/>
      <sparseX i="671" alpha="67927123.291072130" sparseCutoff="1.0000000000000000"/>
      <sparseX i="672" alpha="-52465556.072345369" sparseCutoff="1.0000000000000000"/>
      <sparseX i="673" alpha="-192430659.74050650" sparseCutoff="1.0000000000000000"/>
      <sparseX i="674" alpha="261394394.20959887" sparseCutoff="1.0000000000000000"/>
      <sparseX i="675" alpha="-183405504.81627944" sparseCutoff="1.0000000000000000"/>
      <sparseX i="676" alpha="205891241.30536419" sparseCutoff="1.0000000000000000"/>
      <sparseX i="677" alpha="215417158.96361753" sparseCutoff="1.0000000000000000"/>
      <sparseX i="678" alpha="-170141990.45792103" sparseCutoff="1.0000000000000000"/>
      <sparseX i="679" alpha="140824111.60178426" sparseCutoff="1.0000000000000000"/>
      <sparseX i="680" alpha="-202002628.14362463" sparseCutoff="1.0000000000000000"/>
      <sparseX i="681" alpha="169325298.85243994" sparseCutoff="1.0000000000000000"/>
      <sparseX i="682" alpha="-205731230.82339209" sparseCutoff="1.0000000000000000"/>
      <sparseX i="683" alpha="61619233.819101654" sparseCutoff="1.0000000000000000"/>
      <sparseX i="684" alpha="274501222.62254083" sparseCutoff="1.0000000000000000"/>
      <sparseX i="685" alpha="69946967.818591252" sparseCutoff="1.0000000000000000"/>
      <sparseX i="686" alpha="-25912463.625996932" sparseCutoff="1.0000000000000000"/>
      <sparseX i="687" alpha="-25913596.692531917" sparseCutoff="1.0000000000000000"/>
      <sparseX i="688" alpha="25724583.500222020" sparseCutoff="1.0000000000000000"/>
      <sparseX i="689" alpha="241214713.69357276" sparseCutoff="1.0000000000000000"/>
      <sparseX i="690" alpha="-70714689.620700300" sparseCutoff="1.0000000000000000"/>
      <sparseX i="691" alpha="-174881619.63506058" sparseCutoff="1.0000000000000000"/>
      <sparseX i="692" alpha="397161657.80354041" sparseCutoff="1.0000000000000000"/>
      <sparseX i="693" alpha="-192317788.84771490" sparseCutoff="1.0000000000000000"/>
      <sparseX i="694" alpha="21959704.208949350" sparseCutoff="1.0000000000000000"/>
      <sparseX i="695" alpha="63148596.294119708" sparseCutoff="1.0000000000000000"/>
      <sparseX i="696" alpha="132130828.11984584" sparseCutoff="1.0000000000000000"/>
      <sparseX i="697" alpha="-153249448.40597704" sparseCutoff="1.0000000000000000"/>
      <sparseX i="698" alpha="164803457.61585864" sparseCutoff="1.0000000000000000"/>
      <sparseX i="699" alpha="141041572.48719257" sparseCutoff="1.0000000000000000"/>
      <sparseX i="700" alpha="102163865.04668164" sparseCutoff="1.0000000000000000"/>
      <sparseX i="701" alpha="95643966.584315151" sparseCutoff="1.0000000000000000"/>
      <sparseX i="702" alpha="276684793.19569570" sparseCutoff="1.0000000000000000"/>
      <sparseX i="703" alpha="276685787.42303097" sparseCutoff="1.0000000000000000"/>
      <sparseX i="704" alpha="21867226.017955750" sparseCutoff="1.0000000000000000"/>
      <sparseX i="705" alpha="68566517.323607504" sparseCutoff="1.0000000000000000"/>
      <sparseX i="706" alpha="299536189.87735331" sparseCutoff="1.0000000000000000"/>
      <sparseX i="707" alpha="299535232.93692225" sparseCutoff="1.0000000000000000"/>
      <sparseX i="708" alpha="213569919.31705570" sparseCutoff="1.0000000000000000"/>
      <sparseX i="709" alpha="61536844.906003974" sparseCutoff="1.0000000000000000"/>
      <sparseX i="710" alpha="130416256.79855278" sparseCutoff="1.0000000000000000"/>
      <sparseX i="711" alpha="35942088.215217151" sparseCutoff="1.0000000000000000"/>
      <sparseX i="712" alpha="-2563922.2939945450" sparseCutoff="1.0000000000000000"/>
      <sparseX i="713" alpha="20208258.652389988" sparseCutoff="1.0000000000000000"/>
      <sparseX i="714" alpha="20206779.642556660" sparseCutoff="1.0000000000000000"/>
      <sparseX i="715" alpha="145720181.68696856" sparseCutoff="1.0000000000000000"/>
      <sparseX i="716" alpha="181395769.06882966" sparseCutoff="1.0000000000000000"/>
      <sparseX i="717" alpha="181393840.67288679" sparseCutoff="1.0000000000000000"/>
      <sparseX i="718" alpha="-112001760.34842184" sparseCutoff="1.0000000000000000"/>
      <sparseX i="719" alpha="-112001362.41519731" sparseCutoff="1.0000000000000000"/>
      <sparseX i="720" alpha="136697018.48266190" sparseCutoff="1.0000000000000000"/>
      <sparseX i="721" alpha="513537315.89459658" sparseCutoff="1.0000000000000000"/>
      <sparseX i="722" alpha="513537246.51114523" sparseCutoff="1.0000000000000000"/>
      <sparseX i="723" alpha="513537262.08184946" sparseCutoff="1.0000000000000000"/>
      <sparseX i="724" alpha="-82052355.108560622" sparseCutoff="1.0000000000000000"/>
      <sparseX i="725" alpha="-82052438.965370521" sparseCutoff="1.0000000000000000"/>
      <sparseX i="726" alpha="-82052317.973997191" sparseCutoff="1.0000000000000000"/>
      <sparseX i="727" alpha="-80059584.182455316" sparseCutoff="1.0000000000000000"/>
      <sparseX i="728" alpha="-91868852.802873269" sparseCutoff="1.0000000000000000"/>
      <sparseX i="729" alpha="-91867512.273871437" sparseCutoff="1.0000000000000000"/>
      <sparseX i="730" alpha="-91875991.714494139" sparseCutoff="1.0000000000000000"/>
      <sparseX i="731" alpha="15017209.331278682" sparseCutoff="1.0000000000000000"/>
      <sparseX i="732" alpha="15019796.637428716" sparseCutoff="1.0000000000000000"/>
      <sparseX i="733" alpha="42603855.845839456" sparseCutoff="1.0000000000000000"/>
      <sparseX i="734" alpha="42583040.899085484" sparseCutoff="1.0000000000000000"/>
      <sparseX i="735" alpha="46645246.345997199" sparseCutoff="1.0000000000000000"/>
      <sparseX i="736" alpha="139620431.83799750" sparseCutoff="1.0000000000000000"/>
      <sparseX i="737" alpha="-387815278.42645574" sparseCutoff="1.0000000000000000"/>
      <sparseX i="738" alpha="286158276.79008049" sparseCutoff="1.0000000000000000"/>
      <sparseX i="739" alpha="42537619.379304819" sparseCutoff="1.0000000000000000"/>
      <sparseX i="740" alpha="9542182.3607802577" sparseCutoff="1.0000000000000000"/>
      <sparseX i="741" alpha="69042829.259488240" sparseCutoff="1.0000000000000000"/>
      <sparseX i="742" alpha="-96447240.625736877" sparseCutoff="1.0000000000000000"/>
      <sparseX i="743" alpha="-36704977.795362107" sparseCutoff="1.0000000000000000"/>
      <sparseX i="744" alpha="-112032940.67607096" sparseCutoff="1.0000000000000000"/>
      <sparseX i="745" alpha="21919655.525771596" sparseCutoff="1.0000000000000000"/>
      <sparseX i="746" alpha="25717411.637999065" sparseCutoff="1.0000000000000000"/>
      <sparseX i="747" alpha="192903182.76676798" sparseCutoff="1.0000000000000000"/>
      <sparseX i="748" alpha="74377124.199595585" sparseCutoff="1.0000000000000000"/>
      <sparseX i="749" alpha="-97725059.495266706" sparseCutoff="1.0000000000000000"/>
      <sparseX i="750" alpha="29603915.132230237" sparseCutoff="1.0000000000000000"/>
      <sparseX i="751" alpha="28516381.245049536" sparseCutoff="1.0000000000000000"/>
      <sparseX i="752" alpha="-169895449.52328220" sparseCutoff="1.0000000000000000"/>
      <sparseX i="753" alpha="209035447.82422504" sparseCutoff="1.0000000000000000"/>
      <sparseX i="754" alpha="-12154653.735494507" sparseCutoff="1.0000000000000000"/>
      <sparseX i="755" alpha="72940456.828662798" sparseCutoff="1.0000000000000000"/>
      <sparseX i="756" alpha="-30602231.625227496" sparseCutoff="1.0000000000000000"/>
      <sparseX i="757" alpha="-43419412.357523099" sparseCutoff="1.0000000000000000"/>
      <sparseX i="758" alpha="13224196.255959487" sparseCutoff="1.0000000000000000"/>
      <sparseX i="759" alpha="155927181.42880684" sparseCutoff="1.0000000000000000"/>
      <sparseX i="760" alpha="1880141.6436915505" sparseCutoff="1.0000000000000000"/>
      <sparseX i="761" alpha="57873490.775674112" sparseCutoff="1.0000000000000000"/>
      <sparseX i="762" alpha="59461372.146135136" sparseCutoff="1.0000000000000000"/>
      <sparseX i="763" alpha="18138558.127690606" sparseCutoff="1.0000000000000000"/>
      <sparseX i="764" alpha="-235798306.38912171" sparseCutoff="1.0000000000000000"/>
      <sparseX i="765" alpha="-102134068.29751922" sparseCutoff="1.0000000000000000"/>
      <sparseX i="766" alpha="523479151.52530974" sparseCutoff="1.0000000000000000"/>
      <sparseX i="767" alpha="-240222641.13655713" sparseCutoff="1.0000000000000000"/>
      <sparseX i="768" alpha="321052226.72920364" sparseCutoff="1.0000000000000000"/>
      <sparseX i="769" alpha="-44946163.568360560" sparseCutoff="1.0000000000000000"/>
      <sparseX i="770" alpha="-59441939.477517396" sparseCutoff="1.0000000000000000"/>
      <sparseX i="771" alpha="67670433.275297865" sparseCutoff="1.0000000000000000"/>
      <sparseX i="772" alpha="-58303538.080518633" sparseCutoff="1.0000000000000000"/>
      <sparseX i="773" alpha="-93208972.347059071" sparseCutoff="1.0000000000000000"/>
      <sparseX i="774" alpha="-63720939.715439096" sparseCutoff="1.0000000000000000"/>
      <sparseX i="775" alpha="3940088.0545736090" sparseCutoff="1.0000000000000000"/>
      <sparseX i="776" alpha="3934771.2246330371" sparseCutoff="1.0000000000000000"/>
      <sparseX i="777" alpha="-100559888.88328913" sparseCutoff="1.0000000000000000"/>
      <sparseX i="778" alpha="459490695.20135742" sparseCutoff="1.0000000000000000"/>
      <sparseX i="779" alpha="-84100033.202459931" sparseCutoff="1.0000000000000000"/>
      <sparseX i="780" alpha="-84113541.180839077" sparseCutoff="1.0000000000000000"/>
      <sparseX i="781" alpha="-38376070.632106155" sparseCutoff="1.0000000000000000"/>
      <sparseX i="782" alpha="-59876847.928070068" sparseCutoff="1.0000000000000000"/>
      <sparseX i="783" alpha="178040140.31061822" sparseCutoff="1.0000000000000000"/>
      <sparseX i="784" alpha="-80749989.388551548" sparseCutoff="1.0000000000000000"/>
      <sparseX i="785" alpha="-63127096.202853665" sparseCutoff="1.0000000000000000"/>
      <sparseX i="786" alpha="110093820.78748733" sparseCutoff="1.0000000000000000"/>
      <sparseX i="787" alpha="110090430.05932006" sparseCutoff="1.0000000000000000"/>
      <sparseX i="788" alpha="48939863.477330036" sparseCutoff="1.0000000000000000"/>
      <sparseX i="789" alpha="14075014.108810266" sparseCutoff="1.0000000000000000"/>
      <sparseX i="790" alpha="-57181252.265948437" sparseCutoff="1.0000000000000000"/>
      <sparseX i="791" alpha="32136788.258811723" sparseCutoff="1.0000000000000000"/>
      <sparseX i="792" alpha="854379.42075856193" sparseCutoff="1.0000000000000000"/>
      <sparseX i="793" alpha="34099998.833284311" sparseCutoff="1.0000000000000000"/>
      <sparseX i="794" alpha="34100189.136349685" sparseCutoff="1.0000000000000000"/>
      <sparseX i="795" alpha="34101318.762719177" sparseCutoff="1.0000000000000000"/>
      <sparseX i="796" alpha="-68012708.582323849" sparseCutoff="1.0000000000000000"/>
      <sparseX i="797" alpha="-15489638.401600152" sparseCutoff="1.0000000000000000"/>
      <sparseX i="798" alpha="133815871.72397599" sparseCutoff="1.0000000000000000"/>
      <sparseX i="799" alpha="24293719.858909223" sparseCutoff="1.0000000000000000"/>
      <sparseX i="800" alpha="-3429205.9939178536" sparseCutoff="1.0000000000000000"/>
      <sparseX i="801" alpha="250363043.89181501" sparseCutoff="1.0000000000000000"/>
      <sparseX i="802" alpha="-102469924.74813783" sparseCutoff="1.0000000000000000"/>
      <sparseX i="803" alpha="-102470587.70957887" sparseCutoff="1.0000000000000000"/>
      <sparseX i="804" alpha="-95999095.605375305" sparseCutoff="1.0000000000000000"/>
      <sparseX i="805" alpha="-84842657.647912800" sparseCutoff="1.0000000000000000"/>
      <sparseX i="806" alpha="154694702.39598382" sparseCutoff="1.0000000000000000"/>
      <sparseX i="807" alpha="-79960135.478677079" sparseCutoff="1.0000000000000000"/>
      <sparseX i="808" alpha="207184389.08722383" sparseCutoff="1.0000000000000000"/>
      <sparseX i="809" alpha="225509190.16198972" sparseCutoff="1.0000000000000000"/>
      <sparseX i="810" alpha="-32706459.120137673" sparseCutoff="1.0000000000000000"/>
      <sparseX i="811" alpha="5534413.4789499938" sparseCutoff="1.0000000000000000"/>
      <sparseX i="812" alpha="43307276.980377950" sparseCutoff="1.0000000000000000"/>
      <sparseX i="813" alpha="42268219.460000731" sparseCutoff="1.0000000000000000"/>
      <sparseX i="814" alpha="42853587.013333574" sparseCutoff="1.0000000000000000"/>
      <sparseX i="815" alpha="-121625166.22310731" sparseCutoff="1.0000000000000000"/>
      <sparseX i="816" alpha="96095378.969497308" sparseCutoff="1.0000000000000000"/>
      <sparseX i="817" alpha="-94831056.536193594" sparseCutoff="1.0000000000000000"/>
      <sparseX i="818" alpha="43056409.048412308" sparseCutoff="1.0000000000000000"/>
      <sparseX i="819" alpha="-115222166.79177849" sparseCutoff="1.0000000000000000"/>
      <sparseX i="820" alpha="-54737219.626208998" sparseCutoff="1.0000000000000000"/>
      <sparseX i="821" alpha="-52473014.672796480" sparseCutoff="1.0000000000000000"/>
      <sparseX i="822" alpha="-65097998.529532477" sparseCutoff="1.0000000000000000"/>
      <sparseX i="823" alpha="-118164805.37551820" sparseCutoff="1.0000000000000000"/>
      <sparseX i="824" alpha="-31593668.946357857" sparseCutoff="1.0000000000000000"/>
      <sparseX i="825" alpha="-25484280.778062686" sparseCutoff="1.0000000000000000"/>
      <sparseX i="826" alpha="-31887214.465272103" sparseCutoff="1.0000000000000000"/>
      <sparseX i="827" alpha="-27774163.391780101" sparseCutoff="1.0000000000000000"/>
      <sparseX i="828" alpha="102599553.39047386" sparseCutoff="1.0000000000000000"/>
      <sparseX i="829" alpha="92101225.472788647" sparseCutoff="1.0000000000000000"/>
      <sparseX i="830" alpha="-122723930.23907030" sparseCutoff="1.0000000000000000"/>
      <sparseX i="831" alpha="66373850.374040075" sparseCutoff="1.0000000000000000"/>
      <sparseX i="832" alpha="-41530882.652817912" sparseCutoff="1.0000000000000000"/>
      <sparseX i="833" alpha="-91027085.173072875" sparseCutoff="1.0000000000000000"/>
      <sparseX i="834" alpha="-89259223.212086394" sparseCutoff="1.0000000000000000"/>
      <sparseX i="835" alpha="-73984698.690371051" sparseCutoff="1.0000000000000000"/>
      <sparseX i="836" alpha="58760781.025317460" sparseCutoff="1.0000000000000000"/>
      <sparseX i="837" alpha="-353744174.17367339" sparseCutoff="1.0000000000000000"/>
      <sparseX i="838" alpha="-236727308.32149461" sparseCutoff="1.0000000000000000"/>
      <sparseX i="839" alpha="-236750414.13791138" sparseCutoff="1.0000000000000000"/>
      <sparseX i="840" alpha="-2974846.8050595187" sparseCutoff="1.0000000000000000"/>
      <sparseX i="841" alpha="73525492.009168953" sparseCutoff="1.0000000000000000"/>
      <sparseX i="842" alpha="139247654.54546762" sparseCutoff="1.0000000000000000"/>
      <sparseX i="843" alpha="13682975.452304181" sparseCutoff="1.0000000000000000"/>
      <sparseX i="844" alpha="141724571.30256128" sparseCutoff="1.0000000000000000"/>
      <sparseX i="845" alpha="142499340.03220502" sparseCutoff="1.0000000000000000"/>
      <sparseX i="846" alpha="142505100.26384425" sparseCutoff="1.0000000000000000"/>
      <sparseX i="847" alpha="130403359.02199684" sparseCutoff="1.0000000000000000"/>
      <sparseX i="848" alpha="-147575879.06232503" sparseCutoff="1.0000000000000000"/>
      <sparseX i="849" alpha="13824832.126926269" sparseCutoff="1.0000000000000000"/>
      <sparseX i="850" alpha="34471994.883951314" sparseCutoff="1.0000000000000000"/>
      <sparseX i="851" alpha="-60844866.452860348" sparseCutoff="1.0000000000000000"/>
      <sparseX i="852" alpha="10105187.194066718" sparseCutoff="1.0000000000000000"/>
      <sparseX i="853" alpha="101115069.22579230" sparseCutoff="1.0000000000000000"/>
      <sparseX i="854" alpha="101118093.54903197" sparseCutoff="1.0000000000000000"/>
      <sparseX i="855" alpha="157847769.81022292" sparseCutoff="1.0000000000000000"/>
      <sparseX i="856" alpha="157881783.74904552" sparseCutoff="1.0000000000000000"/>
      <sparseX i="857" alpha="144919039.59250912" sparseCutoff="1.0000000000000000"/>
      <sparseX i="858" alpha="-187423428.84068111" sparseCutoff="1.0000000000000000"/>
      <sparseX i="859" alpha="32415614.991185624" sparseCutoff="1.0000000000000000"/>
      <sparseX i="860" alpha="32428003.201124575" sparseCutoff="1.0000000000000000"/>
      <sparseX i="861" alpha="32458151.656448439" sparseCutoff="1.0000000000000000"/>
      <sparseX i="862" alpha="29035138.608262159" sparseCutoff="1.0000000000000000"/>
      <sparseX i="863" alpha="29024724.726724684" sparseCutoff="1.0000000000000000"/>
      <sparseX i="864" alpha="-850929.69305431412" sparseCutoff="1.0000000000000000"/>
      <sparseX i="865" alpha="-850943.03899618029" sparseCutoff="1.0000000000000000"/>
      <sparseX i="866" alpha="-20696516.307035506" sparseCutoff="1.0000000000000000"/>
      <sparseX i="867" alpha="-20702661.529298879" sparseCutoff="1.0000000000000000"/>
      <sparseX i="868" alpha="-20702026.037811682" sparseCutoff="1.0000000000000000"/>
      <sparseX i="869" alpha="40271511.696091309" sparseCutoff="1.0000000000000000"/>
      <sparseX i="870" alpha="-87475352.949881822" sparseCutoff="1.0000000000000000"/>
      <sparseX i="871" alpha="43384423.545637660" sparseCutoff="1.0000000000000000"/>
      <sparseX i="872" alpha="-33827863.522419669" sparseCutoff="1.0000000000000000"/>
      <sparseX i="873" alpha="-17525271.742003001" sparseCutoff="1.0000000000000000"/>
      <sparseX i="874" alpha="191580995.02721965" sparseCutoff="1.0000000000000000"/>
      <sparseX i="875" alpha="54785213.221632168" sparseCutoff="1.0000000000000000"/>
      <sparseX i="876" alpha="55078148.723360725" sparseCutoff="1.0000000000000000"/>
      <sparseX i="877" alpha="55742141.929316401" sparseCutoff="1.0000000000000000"/>
      <sparseX i="878" alpha="42933220.435592733" sparseCutoff="1.0000000000000000"/>
      <sparseX i="879" alpha="-92877997.963903889" sparseCutoff="1.0000000000000000"/>
      <sparseX i="880" alpha="115609983.10205801" sparseCutoff="1.0000000000000000"/>
      <sparseX i="881" alpha="115615319.24406067" sparseCutoff="1.0000000000000000"/>
      <sparseX i="882" alpha="184913400.08652610" sparseCutoff="1.0000000000000000"/>
      <sparseX i="883" alpha="22782315.744622845" sparseCutoff="1.0000000000000000"/>
      <sparseX i="884" alpha="494167815.51590747" sparseCutoff="1.0000000000000000"/>
      <sparseX i="885" alpha="494172419.62568593" sparseCutoff="1.0000000000000000"/>
      <sparseX i="886" alpha="-29818959.685656831" sparseCutoff="1.0000000000000000"/>
      <sparseX i="887" alpha="-29797240.510950163" sparseCutoff="1.0000000000000000"/>
      <sparseX i="888" alpha="-171467267.48290437" sparseCutoff="1.0000000000000000"/>
      <sparseX i="889" alpha="-171474544.62753725" sparseCutoff="1.0000000000000000"/>
      <sparseX i="890" alpha="-80716488.258849248" sparseCutoff="1.0000000000000000"/>
      <sparseX i="891" alpha="14658262.330860604" sparseCutoff="1.0000000000000000"/>
      <sparseX i="892" alpha="83714467.271485999" sparseCutoff="1.0000000000000000"/>
      <sparseX i="893" alpha="347217787.88744891" sparseCutoff="1.0000000000000000"/>
      <sparseX i="894" alpha="-6181877.8243168071" sparseCutoff="1.0000000000000000"/>
      <sparseX i="895" alpha="-154216772.59603810" sparseCutoff="1.0000000000000000"/>
      <sparseX i="896" alpha="-24642354.789644208" sparseCutoff="1.0000000000000000"/>
      <sparseX i="897" alpha="-44527062.492258988" sparseCutoff="1.0000000000000000"/>
      <sparseX i="898" alpha="-38366249.322975054" sparseCutoff="1.0000000000000000"/>
      <sparseX i="899" alpha="-38365414.806316867" sparseCutoff="1.0000000000000000"/>
      <sparseX i="900" alpha="-37918964.168919817" sparseCutoff="1.0000000000000000"/>
      <sparseX i="901" alpha="-37919049.513836920" sparseCutoff="1.0000000000000000"/>
      <sparseX i="902" alpha="-37918134.835168928" sparseCutoff="1.0000000000000000"/>
      <sparseX i="903" alpha="78694047.760346547" sparseCutoff="1.0000000000000000"/>
      <sparseX i="904" alpha="69952838.910661533" sparseCutoff="1.0000000000000000"/>
      <sparseX i="905" alpha="82170534.291311368" sparseCutoff="1.0000000000000000"/>
      <sparseX i="906" alpha="-15009076.981896443" sparseCutoff="1.0000000000000000"/>
      <sparseX i="907" alpha="-60913831.758694120" sparseCutoff="1.0000000000000000"/>
      <sparseX i="908" alpha="149386027.90302497" sparseCutoff="1.0000000000000000"/>
      <sparseX i="909" alpha="1177393.4698628078" sparseCutoff="1.0000000000000000"/>
      <sparseX i="910" alpha="-71622935.368478283" sparseCutoff="1.0000000000000000"/>
      <sparseX i="911" alpha="-305450645.84180021" sparseCutoff="1.0000000000000000"/>
      <sparseX i="912" alpha="-8016116.4820246147" sparseCutoff="1.0000000000000000"/>
      <sparseX i="913" alpha="-107063288.37849645" sparseCutoff="1.0000000000000000"/>
      <sparseX i="914" alpha="54433595.631859817" sparseCutoff="1.0000000000000000"/>
      <sparseX i="915" alpha="93172767.402259082" sparseCutoff="1.0000000000000000"/>
      <sparseX i="916" alpha="19769768.825798891" sparseCutoff="1.0000000000000000"/>
      <sparseX i="917" alpha="-56149901.535667740" sparseCutoff="1.0000000000000000"/>
      <sparseX i="918" alpha="43230039.919067279" sparseCutoff="1.0000000000000000"/>
      <sparseX i="919" alpha="-110164786.98215616" sparseCutoff="1.0000000000000000"/>
      <sparseX i="920" alpha="-78954886.601999700" sparseCutoff="1.0000000000000000"/>
      <sparseX i="921" alpha="-63375638.262078583" sparseCutoff="1.0000000000000000"/>
      <sparseX i="922" alpha="-5613831.7859968478" sparseCutoff="1.0000000000000000"/>
      <sparseX i="923" alpha="34672927.345027126" sparseCutoff="1.0000000000000000"/>
      <sparseX i="924" alpha="-185701461.69929677" sparseCutoff="1.0000000000000000"/>
      <sparseX i="925" alpha="-185711977.75227743" sparseCutoff="1.0000000000000000"/>
      <sparseX i="926" alpha="-29843032.143828195" sparseCutoff="1.0000000000000000"/>
      <sparseX i="927" alpha="-198460450.57419762" sparseCutoff="1.0000000000000000"/>
      <sparseX i="928" alpha="-200945311.70300588" sparseCutoff="1.0000000000000000"/>
      <sparseX i="929" alpha="30034673.616006341" sparseCutoff="1.0000000000000000"/>
      <sparseX i="930" alpha="7816116.7119852006" sparseCutoff="1.0000000000000000"/>
      <sparseX i="931" alpha="7791202.5388737665" sparseCutoff="1.0000000000000000"/>
      <sparseX i="932" alpha="104457235.02598178" sparseCutoff="1.0000000000000000"/>
      <sparseX i="933" alpha="-185530290.81428215" sparseCutoff="1.0000000000000000"/>
      <sparseX i="934" alpha="-127886484.64480019" sparseCutoff="1.0000000000000000"/>
      <sparseX i="935" alpha="-95204822.084546998" sparseCutoff="1.0000000000000000"/>
      <sparseX i="936" alpha="299784835.28094685" sparseCutoff="1.0000000000000000"/>
      <sparseX i="937" alpha="-282894786.18701291" sparseCutoff="1.0000000000000000"/>
      <sparseX i="938" alpha="177231107.33732593" sparseCutoff="1.0000000000000000"/>
      <sparseX i="939" alpha="-196014343.01323104" sparseCutoff="1.0000000000000000"/>
      <sparseX i="940" alpha="226053831.43750709" sparseCutoff="1.0000000000000000"/>
      <sparseX i="941" alpha="-62142980.292416289" sparseCutoff="1.0000000000000000"/>
      <sparseX i="942" alpha="-277898654.86982650" sparseCutoff="1.0000000000000000"/>
      <sparseX i="943" alpha="-31106237.714046955" sparseCutoff="1.0000000000000000"/>
      <sparseX i="944" alpha="-315389385.11742902" sparseCutoff="1.0000000000000000"/>
      <sparseX i="945" alpha="-22948294.525403611" sparseCutoff="1.0000000000000000"/>
      <sparseX i="946" alpha="-94220429.704114720" sparseCutoff="1.0000000000000000"/>
      <sparseX i="947" alpha="-34389475.852285728" sparseCutoff="1.0000000000000000"/>
      <sparseX i="948" alpha="130878874.72894183" sparseCutoff="1.0000000000000000"/>
      <sparseX i="949" alpha="48648274.679417245" sparseCutoff="1.0000000000000000"/>
      <sparseX i="950" alpha="-210380959.75953680" sparseCutoff="1.0000000000000000"/>
      <sparseX i="951" alpha="-36265307.356107369" sparseCutoff="1.0000000000000000"/>
      <sparseX i="952" alpha="-386182488.65115947" sparseCutoff="1.0000000000000000"/>
      <sparseX i="953" alpha="-154692346.91529378" sparseCutoff="1.0000000000000000"/>
      <sparseX i="954" alpha="-1585527.5846927096" sparseCutoff="1.0000000000000000"/>
      <sparseX i="955" alpha="74323582.506281212" sparseCutoff="1.0000000000000000"/>
      <sparseX i="956" alpha="-195267499.49554226" sparseCutoff="1.0000000000000000"/>
      <sparseX i="957" alpha="-32040994.460407756" sparseCutoff="1.0000000000000000"/>
      <sparseX i="958" alpha="64282549.025241248" sparseCutoff="1.0000000000000000"/>
      <sparseX i="959" alpha="-170564917.77819088" sparseCutoff="1.0000000000000000"/>
      <sparseX i="960" alpha="-16542397.665795222" sparseCutoff="1.0000000000000000"/>
      <sparseX i="961" alpha="-43834999.519572467" sparseCutoff="1.0000000000000000"/>
      <sparseX i="962" alpha="-207206993.71755224" sparseCutoff="1.0000000000000000"/>
      <sparseX i="963" alpha="143966361.52264699" sparseCutoff="1.0000000000000000"/>
      <sparseX i="964" alpha="95218362.064424887" sparseCutoff="1.0000000000000000"/>
      <sparseX i="965" alpha="-114214374.65125853" sparseCutoff="1.0000000000000000"/>
      <sparseX i="966" alpha="-114212906.28740568" sparseCutoff="1.0000000000000000"/>
      <sparseX i="967" alpha="-91521056.813135147" sparseCutoff="1.0000000000000000"/>
      <sparseX i="968" alpha="175680775.11203063" sparseCutoff="1.0000000000000000"/>
      <sparseX i="969" alpha="-33566346.002033211" sparseCutoff="1.0000000000000000"/>
      <sparseX i="970" alpha="278656325.36616969" sparseCutoff="1.0000000000000000"/>
      <sparseX i="971" alpha="-128744705.82729913" sparseCutoff="1.0000000000000000"/>
      <sparseX i="972" alpha="-247410885.42117119" sparseCutoff="1.0000000000000000"/>
